999 200
135723 0.070985 -0.163093 -0.083202 -0.186354 0.023299 -0.000417 0.640800 -0.045285 0.090341 0.228438 0.293912 -0.259776 -0.226795 -0.174231 -0.074230 -0.243174 -0.072812 -0.099658 -0.034058 -0.246192 -0.005247 -0.047916 0.121736 0.317701 0.729380 0.023082 -0.010200 0.342220 -0.164111 -0.613881 -0.322363 -0.153799 0.372896 -0.097956 -0.160073 -0.104792 0.121503 -0.156897 -0.069818 0.583124 -0.253083 0.423892 0.432192 -0.140679 0.138308 -0.575771 -0.177725 0.036721 0.041286 0.164377 -0.296991 -0.537777 0.641676 -0.638658 0.320232 -0.175969 -0.138840 -0.210486 -0.087007 0.210565 0.414820 0.140266 -0.422198 -0.123236 0.413498 -0.182768 0.152790 -0.046027 -0.065751 -0.346499 -0.100932 0.548877 0.224698 0.214448 0.366034 -0.245607 0.199741 -0.051452 -0.133555 0.219751 0.104166 0.578408 0.470356 0.040914 0.067652 -0.194644 -0.048962 -0.625029 0.296455 -0.558724 0.269058 0.009005 0.095551 0.460432 -0.046167 -0.082595 -0.170194 0.383994 -0.226188 -0.263218 -0.142321 -0.443720 0.094217 -0.125730 0.260065 0.093194 -0.017734 -0.083898 -0.471277 -0.073817 0.050250 0.029335 0.329010 0.207242 0.228794 0.064804 -0.525339 -0.165162 0.050846 -0.001828 -0.061953 0.264829 0.073282 -0.168784 0.022156 -0.059248 -0.301977 -0.113837 -0.276289 0.165547 -0.552801 -0.064818 0.151774 0.418488 -0.327937 0.165446 0.001924 -0.453644 -0.124389 0.333899 0.313240 0.193721 -0.167360 -0.194789 -0.483573 0.310640 0.075452 -0.257591 -0.136825 0.100001 0.074507 -0.111278 0.060621 -0.169853 0.178559 0.400286 -0.121980 0.050109 -0.072309 -0.100685 -0.277262 0.061280 0.062177 -0.117141 -0.089076 -0.144452 0.246569 -0.136875 0.553799 -0.352974 -0.381772 -0.167698 -0.410282 -0.318646 0.128191 0.284001 0.179073 -0.079210 0.253836 0.546367 -0.311522 -0.054770 -0.479808 -0.109047 0.183779 0.168046 -0.877290 -0.027692 0.343436 -0.387116 -0.047586 -0.153349 0.446984 -0.358954 0.111277 -0.116302 -0.044974 0.195348 0.405835 -0.545653 
98821 0.177680 0.004847 -0.238099 -0.070122 0.125719 -0.021563 -0.116982 -0.198679 0.080702 -0.347846 0.141927 0.357646 0.129379 0.140228 0.225390 -0.460606 0.160376 -0.471991 -0.327664 0.105614 -0.030279 -0.268460 0.115805 -0.122889 -0.116632 0.151522 -0.058871 0.367480 0.039713 -0.099901 -0.511315 0.235687 0.393362 0.406488 0.313122 0.019224 -0.450591 0.469947 -0.252710 -0.068287 0.032985 -0.298113 -0.090740 -0.292054 0.112681 -0.103757 0.466571 -0.293793 0.067033 0.064961 -0.010707 0.058391 0.339730 0.430147 -0.294914 -0.573460 -0.432996 -0.306207 -0.565272 -0.167108 -0.176338 -0.317822 -0.198166 -0.361970 0.755171 -0.611642 -0.658027 -0.254763 0.000212 -0.206381 -0.022110 0.449479 0.118847 -0.131561 0.083142 -0.291643 -0.054286 -0.086669 0.459819 0.148197 -0.351983 -0.410162 0.023906 0.288802 -0.215359 0.052421 -0.118387 -0.481962 -0.757048 -0.213222 -0.130387 -0.339534 -0.076564 -0.429081 -0.077980 0.419282 -0.054062 0.170598 0.053519 -0.118522 0.198819 -0.539407 -0.088515 -0.180193 0.077211 -0.085466 0.016627 -0.047380 -0.026812 0.155029 -0.081924 -0.276913 -0.042364 0.202650 0.172706 -0.161099 -0.284556 -0.012612 -0.051473 -0.119508 0.041754 0.030844 0.096344 0.357883 -0.468313 0.032871 0.057939 0.166726 0.233502 -0.085346 -0.351788 -0.606479 0.378576 0.045119 -0.130553 0.235773 -0.097810 -0.274091 -0.252965 0.278260 0.127062 -0.288563 0.130556 0.165730 -0.211078 0.188399 -0.677198 0.142419 0.223439 -0.001342 -0.354171 -0.338682 0.311191 0.047380 0.199605 -0.202390 0.099591 -0.091380 -0.250062 0.225095 -0.264123 0.064708 -0.229962 0.006609 -0.325699 -0.152792 0.081342 0.136209 -0.149442 0.068612 0.040071 0.333482 0.858071 -0.019292 -0.270817 0.166399 -0.128928 0.124349 0.127748 0.187535 0.287902 -0.139583 -0.361663 0.218545 -0.322703 0.582544 0.278223 -0.168927 0.027187 0.618795 -0.281567 0.165586 0.124634 -0.065964 0.018329 -0.198660 -0.282859 -0.070403 0.365138 -0.330794 
126391 -0.194723 -0.233820 -0.107744 0.064406 0.125875 -0.581572 -0.156245 -0.034156 0.004386 -0.529623 -0.376017 -0.310629 -0.843398 0.356908 0.095161 -0.182438 0.295536 0.027317 0.704206 0.201843 -0.344533 0.216124 0.320523 0.141874 -0.077039 -0.158190 -0.626881 -0.366217 0.403711 0.087146 0.035648 0.346996 -0.177851 -0.040087 -0.019352 -0.063811 -0.116336 -0.142673 -0.123762 -0.000190 0.336078 -0.176244 -0.029300 0.278613 0.178828 -0.697754 -0.623973 0.028926 0.055116 0.465286 0.515823 0.426872 0.136090 -0.921635 -0.548531 -0.139339 -0.592610 -0.280618 -0.037574 -0.218452 -0.480033 0.268833 0.064118 0.028734 -0.054004 0.186823 0.085717 0.353600 0.292306 0.057511 0.317294 0.034193 0.151291 0.419169 0.481893 -0.396643 0.152877 -0.308202 0.001470 -0.047373 -0.035579 0.204285 0.463108 0.354204 -0.139345 -0.127121 0.324599 -0.740515 -0.074561 -0.914949 0.393688 -0.337608 0.540506 -0.069918 -0.331899 0.001161 -0.062491 -0.217671 -0.750607 -0.188986 0.400696 -0.172986 -0.264111 0.192101 0.228104 0.507350 -0.278723 -0.437865 -0.664907 0.028580 0.144870 0.298523 -0.375724 0.100407 0.018123 -0.063478 0.410300 0.431525 -0.133662 -0.274548 -0.159686 0.374373 -0.454770 -0.013229 0.241718 0.260317 -0.137635 -0.380989 0.029969 0.352583 -0.121738 0.072960 0.470882 0.405518 -0.205914 -0.127063 -0.126682 -0.011175 0.169882 0.090158 0.129862 -0.295932 0.283921 -0.411047 -0.580019 0.306688 0.459470 -0.213280 -0.462904 -0.047931 -0.015089 0.084750 -0.329138 -0.340348 -0.169039 0.295808 0.075584 0.173646 0.152431 -0.012204 -0.221682 0.150504 0.102349 0.651000 0.142817 -0.560756 -0.161379 -0.370190 0.065867 0.092806 0.262559 0.476669 -0.073888 -0.252964 0.631021 0.007699 -0.157342 0.332706 0.162877 -0.042485 -0.237188 -0.281643 -0.211510 -0.393088 0.860672 0.335248 0.496305 -0.595272 0.149217 0.804451 -0.052304 -0.053799 -0.203661 -0.101240 0.261193 0.247742 0.370658 -0.040400 0.218173 -0.189713 
152459 -0.010190 0.124724 -0.002876 0.016892 -0.005028 0.039706 0.190641 -0.049058 0.191714 -0.088159 0.148693 0.119153 0.239277 -0.038179 -0.148587 -0.187389 -0.193812 -0.005769 0.314712 0.149534 0.052057 0.323126 -0.128648 0.172294 0.065960 0.077147 0.078626 0.173502 0.089411 -0.230062 -0.014170 -0.280392 -0.079301 -0.227356 -0.067094 -0.132306 0.025660 -0.332442 -0.047902 0.628334 -0.102946 0.409567 -0.099773 0.067213 0.099761 -0.105517 0.433587 0.209952 -0.050293 -0.192609 -0.115959 0.186250 0.736933 -0.143900 0.154729 -0.100749 -0.235924 0.272032 -0.121234 -0.122299 -0.353554 -0.036154 -0.453453 -0.539966 -0.121919 -0.096702 0.115254 0.491332 -0.155605 -0.292530 0.028792 0.128177 0.036147 0.000435 0.150948 -0.005530 0.392856 0.215154 0.135533 -0.043956 0.102190 -0.090632 0.214512 0.520165 0.273285 0.043943 -0.198266 -0.452942 0.167814 -0.257501 0.057843 -0.100281 0.157515 0.044294 -0.234469 0.003104 0.132651 0.005921 -0.169059 -0.251161 -0.097815 0.240633 0.115465 0.048981 0.143257 0.544742 -0.085290 0.116046 -0.211930 0.234679 0.077828 -0.455198 -0.277451 0.274537 -0.116436 0.017292 0.037237 0.368667 0.014579 0.178139 0.117947 -0.101793 0.233803 0.035086 0.124438 0.296759 0.174367 -0.349827 0.197231 0.265026 -0.184869 0.210234 -0.310201 -0.057349 -0.382606 0.387218 -0.055698 0.403898 0.048049 -0.066908 -0.047104 0.060410 0.042798 0.363941 -0.283659 -0.230070 0.079195 0.003171 0.006509 -0.141799 -0.168396 0.089363 -0.004173 -0.121886 -0.186516 -0.234574 0.007060 0.320141 0.073260 -0.199335 -0.409047 0.073496 -0.243116 -0.181936 -0.134472 0.333616 0.080392 0.233317 0.179975 -0.140636 0.422104 0.211010 0.103764 -0.077172 0.040730 0.558344 -0.308041 -0.111778 0.029247 -0.035055 0.128510 -0.029094 -0.356349 -0.222060 0.190142 0.283452 -0.146221 -0.169744 -0.072398 -0.046059 0.132817 0.036301 -0.039686 0.122360 0.081910 0.198945 0.191102 0.020586 -0.118501 -0.299352 
61268 0.026641 0.093297 -0.297039 -0.723967 -0.090334 -0.791859 -0.918895 -0.371197 -0.061357 -0.375941 0.739772 -0.596552 0.552804 -0.065487 -0.597741 -0.735118 0.170472 -0.313806 0.199311 0.391511 -0.017552 -0.506167 0.625627 -0.331283 0.474898 -0.207708 -0.094180 -1.641368 0.274737 -0.362616 -1.065999 0.208151 -0.207920 0.128610 0.401547 -0.133303 1.218169 0.387664 -0.359980 -0.277946 -0.837598 -0.105073 -0.113913 -0.153056 0.096322 -1.024936 -1.009599 -0.041949 1.033722 -0.051509 -0.134713 -0.165047 1.028875 -1.049065 -0.359241 -0.085865 -0.292395 0.765200 0.530441 -0.503449 -0.130017 -0.229813 0.665303 -0.547083 0.734667 -0.320943 -1.110062 -0.472075 0.892316 -0.254209 0.670856 0.535926 1.155489 0.214357 0.572666 0.162391 -0.214291 -0.282486 -0.558683 0.514258 -0.075579 0.589342 1.142442 0.145314 0.118738 0.293311 0.632907 0.150787 0.054108 -0.017176 -0.541133 0.571516 -0.407046 -0.120936 -0.023356 0.065823 0.234203 -0.734806 -0.279425 0.596112 1.004686 0.529248 -0.269277 0.453479 -0.534846 0.481788 0.146363 0.585570 -0.087101 -0.592708 0.030084 -0.238414 -0.094658 0.549981 -0.751617 -0.262958 0.072410 -0.122845 -0.492011 -0.545381 0.840050 -0.539009 0.474831 0.373195 0.280316 -0.513783 0.028588 -1.521950 -0.111665 0.444580 0.423133 -0.238051 -0.302028 0.176842 -0.302311 0.620635 -0.567207 1.223116 0.109676 0.542096 -0.170291 -0.147998 1.151860 -0.159579 0.511255 -0.530446 -0.997059 0.201425 0.269887 0.479961 -0.273775 -0.760439 -0.356392 -0.068199 0.234316 -0.684397 -0.149047 -0.051926 -0.906995 -0.331138 -0.394132 -0.165101 -0.121078 0.356015 0.976160 0.524051 -0.646659 0.004335 -0.657526 1.557774 0.279924 0.438579 -0.277439 -0.021907 -0.892293 -0.168856 0.334495 -0.328244 0.569651 0.647185 0.120798 0.448377 0.813650 0.321618 -0.333991 -0.327101 0.857873 -0.581947 0.262624 -0.356230 -0.269693 0.384797 -0.585341 0.412274 -0.699137 0.536587 0.415599 0.255028 0.272540 -0.264654 
109679 0.040589 -0.008495 0.062049 -0.187907 -0.028864 0.073973 0.122422 -0.171635 0.046495 0.055572 0.156921 -0.028320 0.289946 -0.061423 0.256926 0.178556 0.243560 -0.193183 0.098851 -0.115710 -0.035927 -0.093690 -0.041871 0.164617 -0.042039 -0.053606 -0.223562 -0.074710 0.111974 0.347507 -0.101211 0.278575 0.236224 0.143852 0.119806 0.183073 -0.144873 0.130120 -0.045796 0.108081 0.192358 0.076863 0.243507 -0.080296 -0.323233 0.158509 0.050776 0.037958 -0.034181 0.322594 0.009487 -0.016246 0.210008 0.200859 -0.127882 -0.223287 -0.105352 0.128178 0.328740 0.131074 0.033462 -0.020061 -0.241933 0.102694 -0.105413 -0.249700 -0.113713 -0.377957 -0.138841 -0.014740 0.040612 0.088080 0.024622 -0.221180 0.219563 0.033944 0.263252 0.333188 0.210073 0.261741 -0.074213 0.149756 -0.082064 0.119459 -0.083259 0.298349 -0.290335 -0.365679 -0.141334 -0.280683 0.344353 -0.064144 0.005595 -0.098026 0.308734 0.265887 -0.039503 -0.085259 0.191402 -0.179082 0.319039 -0.157107 0.136846 -0.016979 0.078358 0.331848 -0.009567 0.089137 -0.316431 0.050265 -0.062005 -0.144620 -0.219033 -0.061346 0.149641 -0.223842 0.100131 0.115468 -0.058643 0.163063 0.160675 -0.096873 -0.123604 0.097860 -0.293308 -0.022260 -0.018935 -0.036810 -0.100254 0.063651 0.080482 0.014051 0.083692 -0.052430 0.138101 -0.164672 0.269509 -0.015949 -0.132889 -0.059890 0.296604 -0.120391 0.708123 0.156090 -0.075547 0.200331 0.117769 0.330513 0.299702 0.141415 -0.129096 -0.197532 -0.203777 0.189450 -0.033598 -0.285283 -0.213011 -0.583276 -0.151255 0.062441 -0.045861 0.071926 -0.041283 -0.127293 -0.014843 0.102499 0.334209 0.038888 0.361625 -0.029587 0.106332 0.137295 -0.363700 0.078866 0.201869 -0.297336 -0.069837 -0.190094 -0.152989 -0.020532 -0.032627 0.123570 0.079397 -0.205441 0.198043 0.117217 -0.026732 0.099270 0.164941 0.041592 -0.077050 -0.012438 -0.223371 0.149444 0.261544 -0.221678 -0.072577 -0.141857 0.197095 -0.211046 
89443 -0.551039 0.215952 0.196758 -0.475767 -0.608871 -0.390188 0.109675 -0.108694 -0.159596 0.045446 -0.035372 0.220638 -0.018796 -0.034184 0.394071 0.297970 -0.199390 0.739154 -0.177422 0.243207 -0.521383 -0.669429 0.438117 -0.830538 0.002500 0.109646 0.502396 -0.802045 0.829556 -0.640465 -0.622397 -0.004957 0.060936 -0.251576 -0.274079 -0.211034 0.053782 0.479844 -0.245494 0.317291 -0.073801 -0.443414 -0.199594 0.550601 0.831585 -0.479949 0.146583 0.329243 0.012424 -0.144455 0.507557 0.164185 -0.147852 -0.631360 0.455583 -0.368702 -0.327220 0.394503 -1.198721 -0.217430 -0.211216 -0.023135 0.193651 0.217541 0.597240 -0.019304 0.493903 0.461796 0.783166 0.607379 0.575216 0.335176 -0.092068 0.789129 0.174881 -0.304861 0.112913 0.204057 -0.579656 0.675060 -0.196790 0.579517 0.034653 0.880080 -0.848568 -0.149911 -0.305057 -0.404625 0.671667 -0.503041 -0.092839 0.581346 0.166250 -0.016172 0.115929 0.356737 0.087210 -0.146791 0.321469 0.688755 0.451831 0.124981 0.394500 0.453099 0.036466 0.195668 -0.370246 0.327695 0.090015 0.204079 -0.287270 -0.197417 -0.281485 0.104014 0.569531 -0.794654 -0.037373 0.177231 -0.006245 0.047685 -0.123390 0.013480 0.545020 -0.052198 -0.297592 -0.107175 0.076540 -0.796239 0.552143 -0.137557 -0.027297 -0.196426 -0.228135 0.879021 -1.045450 0.182175 -0.256236 -0.015870 0.224828 -0.104056 -0.756628 0.306297 -0.027596 0.101132 0.078636 -0.383523 0.144103 0.076146 0.431551 -0.179613 0.059947 -0.357181 -0.338929 0.029717 -0.426396 0.183839 0.244834 -0.091391 -0.697604 -0.636722 -0.112958 -0.193000 -0.373168 -0.194483 -0.140911 -0.354842 -0.261296 0.361324 0.656534 -0.532300 -0.185831 -0.110436 0.182228 -0.694888 0.200588 -0.523873 0.412973 -0.171861 0.031769 0.273061 -0.179974 0.158798 -0.539760 -0.866610 -0.291133 0.277910 -0.299530 0.596553 0.303669 -0.267881 -0.147130 0.065456 0.014958 -0.090588 -0.233564 -0.074867 -0.212670 0.268977 -0.109854 0.002493 
114020 0.295808 0.090725 0.154957 0.109090 0.561506 0.019759 -0.432683 -0.046434 0.097859 -0.971795 -0.326746 0.158293 0.197414 -0.093147 -0.135658 0.248346 0.367571 0.261561 0.281083 0.075032 -0.477134 0.227634 0.345976 0.554417 -0.117683 -0.486394 0.288635 0.088706 0.203652 0.266247 -0.675575 -0.350933 0.320911 0.231489 0.083088 0.550947 0.381207 0.209630 0.204700 0.051607 -0.195853 0.416678 0.276671 -0.122094 -0.237182 -0.260601 -0.252068 -0.256013 -0.465632 0.492001 0.772199 -1.030072 -0.121059 0.261394 -0.203649 -0.114954 0.300577 -0.666405 0.499033 -0.623506 -0.123747 -0.060436 -1.429756 -0.101910 0.099890 -0.476612 -0.246606 0.105435 -0.042286 -0.075358 -0.170608 0.241191 0.317107 -0.662969 -0.191256 0.147040 -0.082182 0.014272 0.009059 0.169037 0.026466 -0.294908 0.445992 -0.121930 -0.691732 0.646085 -0.171543 -0.688211 -0.257628 0.039891 -0.356072 0.656220 0.297268 -0.171310 0.241792 -1.087338 -0.097780 -0.330041 0.513696 -0.250350 0.141908 0.376855 -0.368139 -0.425724 0.391744 -0.112670 0.072676 0.195540 -0.555304 -0.148865 0.171614 0.176288 0.178795 0.603368 0.043559 -0.781327 0.318887 -0.210065 0.269043 0.605854 -0.064269 -0.081953 0.455612 -0.235181 -0.444036 0.349729 -0.801493 0.221721 0.005117 -0.108841 -0.530378 -0.064750 0.460261 0.071140 -0.592726 0.583770 0.279812 0.020000 0.386224 0.022114 -0.213675 0.526933 -0.111804 -0.089550 -0.584920 0.282041 -0.191346 -0.061144 0.305260 0.280371 0.059645 -0.716397 -0.002844 -0.463654 0.360755 -0.223245 -0.337423 0.342882 0.018010 -0.078192 -0.207033 0.410715 -0.492862 -0.622664 -0.677579 0.810593 -0.042428 0.237112 0.756804 -0.198462 0.292723 -0.447653 0.463428 0.036057 0.300226 -0.117328 0.352264 0.210282 0.171099 0.166255 -0.127712 -0.454792 -0.411374 0.170768 0.084624 0.014151 0.219043 -0.013158 -0.027938 0.139797 0.124540 -0.083101 -0.172944 0.455897 0.206777 0.034384 -0.466787 0.038388 0.360662 -0.113354 
75491 0.630160 -0.003121 0.182356 -0.166580 0.281745 -0.308185 0.434272 -0.069346 -0.025648 -0.772530 0.940174 0.247488 -0.298676 -0.167198 -0.400033 -0.328970 0.168402 0.274888 -0.487411 0.137197 -0.485657 -0.637373 0.120824 0.309414 -1.056864 0.085384 -0.556516 -0.458303 0.248116 0.272997 0.224765 0.005887 -0.184080 0.695121 -0.312101 -0.212614 -0.761702 0.676172 0.427823 0.148584 0.175232 0.425873 0.373131 -0.219988 -0.555013 -0.101860 -0.537300 -0.175215 -0.305914 -0.056209 0.370091 0.288792 -0.165855 0.059454 0.423126 -0.726008 0.263943 0.478355 0.744649 -0.758859 0.463454 -0.305912 0.453260 -0.465744 -0.090132 -0.476777 0.057285 -0.802472 0.246588 0.166945 0.170909 0.332438 -0.289080 -0.186823 -0.387266 0.038003 -0.661403 0.156423 0.032250 0.507505 0.498285 0.177444 0.461662 0.115961 -0.283560 -0.192929 0.491628 -0.168172 -0.382704 -0.287656 0.192248 0.139919 -0.519230 -0.491401 0.378592 -0.062431 -0.190629 0.041641 0.113199 0.143731 -0.140015 -0.506764 0.237698 0.370694 0.355007 0.082827 -0.120302 -0.357467 0.202308 -0.287774 -0.167249 -0.701655 0.160120 -0.034282 0.169058 -0.569537 -0.039545 0.512595 -0.048206 -0.003929 0.226851 -0.179202 0.001856 -0.072292 0.255282 -0.147436 0.365387 0.597369 -0.291199 -0.173324 -0.139779 -0.033495 0.303786 -0.258938 0.224639 -0.126631 -0.442361 -0.604992 0.306985 0.214784 0.290741 -0.724753 0.049758 0.066927 0.745002 0.079767 0.399687 0.044298 0.186199 -0.105219 -0.549991 -0.439697 -0.002922 -0.081057 0.063805 0.392812 -0.191647 0.346671 -0.291238 -0.247514 0.331256 0.272024 0.283233 -0.062771 -0.224376 -0.023838 0.124854 0.420787 -0.194096 0.409548 0.373657 -0.637219 0.350482 -0.291752 1.202398 0.391175 -0.328538 -0.067404 -0.132992 0.295236 -0.441947 -0.025853 0.153406 0.239453 0.603531 0.623737 0.650038 0.003505 0.084770 -0.492080 0.208867 0.072951 -0.700198 -0.076964 0.125046 -0.130521 0.812220 -0.236303 0.064354 -0.550876 
127005 -0.011314 -0.387404 0.013576 -0.138938 -0.257622 0.011728 -0.095648 0.127890 -0.124571 0.021858 -0.131518 -0.167547 -0.157521 -0.137485 -0.067392 -0.019455 0.068538 -0.126612 0.151104 0.049462 0.214601 0.218726 -0.131873 0.186901 0.002270 0.028357 0.718553 -0.220440 0.238131 -0.381927 -0.110934 0.170729 0.302782 -0.274915 0.110477 -0.526195 -0.179910 -0.499143 0.048290 0.121994 -0.453613 -0.194817 -0.304948 -0.049376 0.412552 -0.702978 -0.539575 -0.152043 -0.208420 0.217240 0.711824 0.275727 0.549423 -0.309568 -0.329274 0.265789 -0.133822 -0.077380 0.024945 -0.001818 -0.664626 -0.078445 -0.084444 -0.088631 0.217854 -0.385961 0.269079 0.161063 0.057591 0.251486 -0.100636 0.252496 -0.106578 0.180700 0.208526 -0.090140 0.398877 -0.016671 0.182598 0.210474 -0.311862 -0.132142 0.303191 0.434473 -0.036072 -0.157070 -0.301813 -0.472298 0.419924 0.012990 -0.062317 0.031763 0.022446 0.134253 -0.077171 0.348226 0.160298 0.044952 -0.585141 -0.241582 0.134103 0.054486 -0.042512 0.366273 0.276603 0.408379 -0.018221 0.388679 -0.169609 0.006145 -0.245231 -0.332116 0.156282 0.330197 -0.198772 0.042596 -0.161782 0.281718 -0.011705 -0.393193 0.216123 0.395047 -0.017380 0.291178 0.121090 0.468427 -0.103634 0.296159 0.058151 0.178629 0.059250 -0.192345 0.136817 -0.330405 0.358095 0.074906 -0.219261 0.006943 0.127085 -0.025414 0.270131 0.181795 -0.038743 0.310102 -0.037842 0.430565 0.204897 0.244227 -0.089094 0.052614 0.175058 -0.017919 -0.248780 -0.607649 0.171466 -0.059666 0.287402 -0.209083 -0.061411 0.316607 -0.609476 0.321839 -0.088152 -0.215535 0.047194 -0.238232 -0.255383 0.264512 0.109819 -0.137675 0.555297 -0.497248 0.003548 0.042919 0.548316 -0.573320 -0.082271 -0.406362 0.102923 0.298314 0.166856 0.091176 -0.531103 0.157574 0.245332 -0.158022 -0.032705 -0.210223 -0.044468 0.157100 0.426077 -0.491429 0.061186 0.040335 0.215960 -0.050031 0.066504 0.148814 -0.040712 -0.215405 
116797 -0.039334 0.143195 0.342709 0.129328 -0.288019 0.078423 0.287126 -0.066087 -0.476252 -0.504154 0.039994 0.321418 0.201090 -0.515763 -0.704234 -0.309336 -0.208887 -0.115985 -0.111315 -0.068836 -0.128945 0.000688 -0.104088 0.431785 0.252359 -0.065472 -0.195839 0.096018 -0.233258 0.345423 -0.151125 -0.068802 -0.139906 0.215599 0.279024 0.000985 -0.203109 -0.576252 0.028039 -0.181926 -0.163106 0.359466 0.492838 0.009605 0.268038 0.068215 -0.443385 -0.102218 0.325311 0.603060 0.302944 -0.040580 0.189173 -0.068121 -0.189472 0.036217 -0.196658 -0.089975 0.050983 0.061793 -0.544607 -0.028973 -0.024199 -0.544371 -0.125296 0.047774 0.021285 -0.099505 0.262366 0.479385 -0.138804 0.396871 0.285359 -0.050407 -0.370281 -0.503540 0.391585 -0.010153 -0.085236 0.233205 -0.303982 0.095716 0.319726 0.224394 -0.328715 -0.042913 0.051384 0.095479 -0.179271 0.173237 0.148821 -0.036877 -0.392250 -0.173724 0.028538 -0.030211 -0.240780 -0.016437 0.202666 -0.123040 -0.068359 -0.214087 0.303897 0.629816 -0.249618 0.051087 -0.009944 0.042530 -0.078299 -0.707119 -0.251356 0.462250 0.067852 0.677125 -0.091724 -0.127982 -0.208196 0.319856 0.011317 0.217955 0.195916 0.389061 0.037312 0.165219 -0.194425 -0.014716 -0.308588 0.368118 -0.191422 0.141871 0.354749 0.060098 -0.307442 -0.103003 -0.237877 -0.282961 -0.253937 0.038482 -0.434156 -0.041683 -0.207642 0.258659 0.428329 0.111687 -0.212107 0.180832 -0.036852 0.180748 -0.141499 -0.050098 -0.155627 0.141184 0.050282 0.405610 0.315031 0.131628 0.207718 0.296936 -0.102128 0.083441 -0.425316 0.035708 -0.069802 0.225704 -0.182187 -0.360523 -0.121364 -0.210737 0.048125 -0.150980 0.286629 0.422979 0.061444 -0.089259 -0.125115 0.089776 -0.444883 0.285272 0.332859 0.475778 0.383315 0.014010 -0.231919 -0.626217 0.219319 0.140252 -0.500731 -0.116104 -0.112324 -0.047896 -0.121969 0.156123 -0.123328 0.287865 0.582147 0.147880 -0.215108 0.326927 0.266208 0.120236 
140634 -0.233858 0.058340 0.163891 -0.412299 -0.808447 -0.025957 0.863425 -0.237431 0.226446 -0.510085 -0.063988 -0.085235 0.208579 -0.221265 0.098143 -0.179635 0.145739 -0.343608 0.803018 -0.061655 -0.217787 0.251549 -0.158264 0.426442 -0.013445 -0.057420 0.691349 -0.666054 -0.076794 0.318883 0.291649 0.419385 0.302783 0.480020 0.175659 0.164721 0.059026 0.103589 -0.166357 0.874086 -0.046200 -0.562208 -0.038783 -0.425035 0.144148 -0.723648 0.029039 0.046008 0.126857 -0.072639 0.071409 -0.181242 0.260279 -0.446367 -0.010427 0.012000 -0.004790 -0.232586 -0.455427 0.096310 -0.611966 0.019374 0.134694 -0.335977 -0.312672 0.021137 0.010319 0.855327 0.360517 0.154906 0.027756 0.543270 0.328288 -0.003505 -0.398177 0.357856 0.444375 0.595273 -0.204812 -0.047675 0.459047 -0.091670 -0.076968 -0.017027 0.457646 -0.341484 0.240057 -0.439155 -0.301324 -0.071140 0.111375 -0.275650 0.005932 0.655144 0.044114 -0.085589 -0.105438 -0.402625 -0.766801 -0.436737 0.152209 -0.102780 -0.227983 0.070313 0.175794 0.123923 -0.189189 -0.359156 -0.156069 0.037906 0.286005 0.531289 -0.465902 0.255442 -0.443324 -0.204924 0.357593 -0.447995 0.318930 -0.030985 0.741205 0.103659 -0.396999 0.499838 -0.084630 0.109172 0.272017 -0.025285 0.112089 -0.115361 -0.360405 0.063607 -0.104527 -0.502821 -0.220913 0.378707 -0.283554 -0.444021 0.007549 -0.053894 0.324835 0.582021 0.080279 0.329968 -0.079831 0.336465 -0.310121 0.429467 -0.355232 0.131069 -0.414648 -0.113398 -0.285162 -0.454387 0.506477 0.795520 0.327006 0.191040 -0.370915 -0.196203 -0.293929 0.309198 -0.314701 -0.268990 0.064636 -0.790382 0.270934 0.447440 0.139458 0.412495 0.222983 -0.139947 -0.217564 -0.078916 0.147569 0.197352 -0.032049 -0.160075 0.323870 -0.151377 -0.576940 -0.115855 -0.264049 -0.820985 0.375888 -0.081905 -0.042566 -0.376993 -0.020559 -0.467433 -0.131912 -0.614056 -0.067774 0.182334 0.292595 0.409276 -0.112360 0.281546 0.730400 -0.336230 
132227 0.047419 0.069317 0.178122 -0.124162 0.200758 0.136292 -0.301645 0.176264 -0.126321 -0.078686 -0.056669 0.438421 -0.211691 -0.189887 0.100444 -0.420249 0.321032 -0.475963 0.243898 0.080532 -0.006345 0.071008 0.166686 0.580655 0.040935 0.186927 0.027965 0.162982 -0.131136 0.029106 -0.327855 -0.316670 0.095447 -0.098306 -0.383641 0.034705 -0.130338 -0.399662 -0.484316 -0.100133 0.044218 0.154985 0.209873 -0.538122 -0.042169 -0.402517 0.163833 -0.236569 0.117150 -0.077094 0.187390 -0.016565 0.494364 0.003633 0.338104 -0.116269 -0.326895 0.093794 0.157565 -0.148490 0.148228 0.209353 -0.243866 -0.018573 -0.102488 -0.228554 -0.173610 0.053108 0.037798 0.320767 0.153788 0.366617 0.010226 -0.081097 0.058353 0.046161 -0.074894 0.036602 -0.445958 0.292950 0.359563 -0.299905 0.211310 0.227257 -0.165516 -0.206665 -0.188778 -0.014562 0.010299 0.100226 0.129520 0.137713 0.255715 0.033614 0.281562 -0.206705 -0.088894 0.098954 -0.086997 -0.148593 0.238221 -0.063626 0.049716 0.416064 -0.080151 -0.543974 0.158951 0.231189 0.073191 -0.116504 -0.090533 -0.194484 -0.281002 -0.148885 0.126137 -0.117866 0.207313 -0.029727 0.302384 -0.019858 0.155938 -0.047750 -0.135083 0.074576 -0.003885 -0.022360 -0.201455 0.118359 0.058764 -0.183650 -0.225594 -0.037750 0.030606 -0.237646 -0.353446 0.394409 -0.254554 -0.077920 0.022926 0.092466 0.164703 -0.064601 -0.333210 0.172974 0.254113 -0.136701 -0.160675 0.190312 0.032610 -0.086252 0.101229 0.286502 -0.124007 -0.085347 0.092564 -0.137559 0.085257 0.049719 -0.320604 0.015834 -0.185908 -0.127315 0.426465 -0.021351 0.068475 -0.372027 0.069107 0.128249 0.083861 -0.147194 0.182451 -0.020132 -0.412248 -0.301581 0.140049 0.000270 0.208578 0.160626 -0.235309 -0.127937 0.141570 -0.034566 0.005282 -0.065213 0.129141 -0.089994 -0.120803 -0.024533 0.096677 0.074085 -0.084285 -0.218373 -0.202082 -0.142082 -0.082804 -0.081216 -0.047412 -0.034892 0.544431 0.080086 
149311 0.333386 0.219595 -0.109759 -0.373626 0.303111 -0.077269 0.399485 0.242589 -0.190070 -0.208860 -0.188793 -0.042140 -0.120744 -0.176324 0.344954 -0.130276 0.089467 -0.031938 0.224137 0.256594 -0.036891 0.214032 0.178131 0.436440 -0.020851 0.089222 -0.029370 -0.277777 -0.021638 0.193121 -0.271452 0.063096 0.014256 -0.014463 0.055808 0.196793 -0.015289 -0.157917 -0.146945 -0.022220 -0.187642 0.279056 0.111356 0.331590 0.076610 -0.193003 0.046745 -0.200149 -0.207751 -0.060186 -0.322501 -0.172921 0.090891 -0.475503 -0.025241 -0.064909 0.133615 -0.082477 -0.294900 -0.240188 -0.304588 0.000455 -0.039029 0.325456 -0.398934 0.139599 -0.137844 -0.105264 0.438658 0.031234 -0.248515 0.365710 -0.101147 -0.109188 -0.186800 0.239535 0.403872 -0.193758 0.127794 0.278959 0.217893 -0.103361 0.418687 0.390496 0.064448 0.052012 0.170200 -0.334320 -0.102242 -0.105940 0.093847 -0.199306 -0.023772 0.025674 -0.420090 -0.120783 0.243546 -0.182951 -0.480976 -0.222158 0.122953 -0.112218 0.097479 0.276341 0.220438 0.242410 -0.210767 0.086906 0.172943 -0.232671 -0.063478 -0.094068 -0.338814 0.278580 -0.067227 0.182356 0.112787 -0.015552 0.163997 0.005922 -0.020887 0.364632 0.053108 -0.409467 -0.314719 -0.399461 0.084873 -0.048240 -0.070915 0.240320 0.177359 -0.071925 0.125238 -0.066055 -0.282847 0.050382 0.279872 0.212198 -0.535371 0.103564 0.106478 0.152570 -0.116119 0.060914 0.423582 0.251521 -0.035180 -0.099016 0.371715 0.197542 0.146620 0.245407 0.337229 -0.088533 -0.189858 -0.289759 0.123203 -0.221650 -0.008158 -0.087377 0.262918 -0.087652 -0.004823 -0.060398 0.188348 0.031728 -0.100501 0.032879 0.315058 0.030561 0.186638 0.101969 -0.103360 -0.096086 -0.249401 -0.124476 -0.276120 -0.023856 -0.392549 0.320608 -0.359810 0.290075 -0.227959 0.044827 -0.055910 0.242895 -0.068944 0.042723 0.087082 -0.110576 0.065710 0.283071 -0.042406 -0.070610 -0.039584 0.139375 0.087120 0.050663 0.341556 0.061963 
139015 -0.452190 -0.240333 0.025106 -0.011775 0.581067 0.075112 0.022375 -0.057884 0.017416 0.093734 0.141448 0.002246 -0.037287 -0.525908 -0.553079 -0.223478 -0.171855 -0.588186 -0.239337 -0.080503 -0.459406 0.202061 -0.487206 0.280282 -0.107610 0.318550 0.174383 -0.094393 0.108317 -0.038156 -0.490093 -0.405591 0.665430 0.150281 0.330215 0.426525 0.053169 0.154977 -0.026099 0.308456 0.251684 -0.140516 0.214348 0.035016 0.373168 -0.228715 -0.078095 -0.027605 -0.275633 0.083594 0.296831 -0.148306 -0.042327 0.095872 0.222690 -0.276399 0.248571 -0.017027 -0.068286 -0.024039 -0.394096 -0.202975 -0.117041 -0.218101 -0.143011 0.453532 0.177815 -0.142264 -0.044486 0.139325 0.110928 0.704198 -0.145902 -0.296846 0.234149 -0.060024 0.542049 0.297843 0.214455 -0.194394 0.410976 0.015802 -0.177786 0.307351 0.009158 0.008824 -0.123168 -0.222119 -0.047502 -0.136182 0.387604 0.132355 0.167982 -0.309376 0.256768 -0.160721 -0.121600 -0.079252 -0.290615 -0.310102 0.090261 -0.070543 -0.336247 0.165588 -0.261722 0.250060 0.197047 0.065658 -0.541009 -0.112110 0.236751 -0.057770 -0.194372 0.236556 -0.042795 -0.455457 0.152097 0.293911 0.469242 -0.220984 -0.145682 0.514654 -0.048392 0.032793 -0.101860 -0.263641 -0.062781 0.129165 0.054262 -0.064898 -0.058314 0.123492 0.143511 0.115884 -0.467108 -0.287559 0.022607 -0.037182 -0.243609 0.092654 -0.245742 -0.030064 0.251158 0.001479 -0.274761 0.053431 0.025093 0.031107 0.274442 -0.047245 -0.094389 0.363005 0.352012 -0.097655 0.017381 -0.156668 0.290638 0.114046 0.098553 -0.266823 0.254715 0.712582 0.186580 -0.062406 -0.158417 0.262860 0.301611 0.233909 -0.172557 -0.138418 0.199748 0.126127 -0.190460 0.044638 0.486037 0.044254 -0.151701 0.351457 0.297444 0.233170 -0.013847 0.155941 -0.160590 -0.128747 0.189924 0.086384 0.572803 -0.209026 0.101443 0.227455 0.082709 -0.220702 -0.091202 -0.170762 0.199291 0.037320 -0.292347 0.104385 0.002929 0.312426 
128118 -0.119955 -0.089862 0.437062 0.275635 -0.036880 0.056900 -0.257216 0.344146 -0.068806 0.046516 -0.035216 0.321655 -0.146397 -0.001065 -0.341180 0.467017 0.406927 -0.131791 0.078685 0.165182 -0.230402 0.224822 -0.051779 0.029090 0.153184 -0.350782 -0.119677 -0.103572 -0.060066 0.306758 -0.349797 -0.150789 0.169874 0.409013 0.061859 0.179153 -0.267501 -0.149042 -0.116216 0.190752 -0.021928 0.202400 -0.095405 -0.476422 0.122453 -0.225996 -0.048623 0.172656 0.105178 0.169408 -0.078776 -0.290241 0.140033 -0.049422 -0.141149 -0.161796 -0.473261 0.190539 0.437527 0.064069 -0.212955 -0.603149 -0.195234 0.259359 -0.182580 -0.376892 0.433808 0.018023 -0.145761 -0.068276 0.017331 0.387328 0.110072 -0.221727 -0.000055 0.109592 0.257860 -0.253532 0.682399 0.400484 0.135697 0.278128 -0.155603 0.267519 0.001479 0.030752 0.347547 0.177212 0.036391 -0.351270 0.047143 0.357098 -0.141503 -0.272746 -0.005966 0.093127 -0.246422 0.039207 0.031832 -0.117852 -0.041918 -0.409356 0.049739 -0.044969 0.158985 0.056006 0.031281 0.095971 -0.139344 -0.358128 0.125924 0.429983 -0.224139 0.475907 0.211155 0.299504 -0.027869 0.154190 0.430051 0.007491 0.366279 -0.031136 0.422406 0.171782 0.434280 -0.436413 -0.121359 0.225162 0.192740 -0.170553 -0.138150 -0.295416 0.127977 -0.075136 -0.085884 0.262666 -0.127133 -0.232749 0.105344 -0.080039 0.136993 -0.257688 -0.028440 0.153176 0.035578 0.049439 0.087814 0.083554 0.340591 0.100420 -0.278217 0.102279 -0.135032 -0.116349 0.140047 -0.240879 0.239611 -0.105237 0.059062 0.280660 -0.124074 -0.207396 -0.098770 0.061417 -0.158540 -0.035367 -0.309429 -0.042720 0.065105 -0.143479 0.293328 0.330578 0.219551 -0.296715 -0.115445 0.060457 0.209294 0.226051 0.529039 -0.120837 0.076332 -0.340570 -0.090895 -0.336792 0.077855 0.190740 0.002033 -0.268900 0.035535 -0.050045 0.038086 0.268987 -0.201700 0.287420 0.025013 -0.042747 -0.229462 -0.294644 0.363563 -0.104415 
131120 -0.112129 0.433672 0.200756 -0.184758 -0.286485 -0.024486 -0.135901 0.271623 -0.103230 -0.078842 0.235052 -0.327901 0.076107 -0.105250 -0.270784 0.296425 0.385118 -0.377028 0.277827 0.785352 -0.257925 -0.166568 0.035927 -0.042594 -0.167420 -0.013642 -0.177752 0.397536 -0.280912 0.426434 0.043023 -0.132178 -0.077394 0.269388 -0.375496 0.028947 -0.014492 -0.660089 0.127266 0.248722 0.162689 -0.224125 0.000750 -0.488597 0.217435 -0.697481 0.100986 -0.134432 0.040503 -0.356814 0.156465 -0.456506 0.101275 -0.436086 -0.036558 -0.165229 -0.138811 0.151044 -0.384020 -0.315707 -0.461753 -0.251664 -0.558339 -0.052520 -0.059741 -0.509373 0.109454 -0.769573 0.027090 -0.057667 0.095943 0.210195 -0.138466 0.168572 0.032972 -0.314807 0.944483 0.026994 0.418313 0.353118 0.267239 0.277263 -0.131779 -0.361816 -0.059866 -0.005112 -0.544437 -0.142878 -0.331447 0.162521 0.271744 -0.509059 0.529221 0.069525 -0.236666 -0.131047 -0.094791 0.287970 -0.002329 0.233976 0.337154 0.300940 -0.028587 0.594704 0.306069 0.208014 -0.373391 -0.853509 -0.187670 -0.812369 0.340362 0.180546 -0.199747 0.131534 -0.109050 0.422390 0.205290 -0.028051 0.232648 -0.255752 0.086580 0.085701 -0.103920 0.361263 -0.111687 0.185594 0.000754 -0.300799 0.379309 -0.277476 0.098007 -0.083826 -0.015581 -0.011633 -0.594956 0.072138 0.114632 -0.157644 0.018211 0.127599 -0.009419 -0.089922 -0.130611 0.352364 0.254626 0.014055 0.073024 0.140275 0.195212 0.014632 0.073392 0.215334 0.194008 -0.559156 -0.049137 0.038038 0.142100 -0.019756 0.146946 0.442233 -0.312723 0.031742 -0.038010 -0.069827 -0.071266 -0.179536 -0.231454 -0.053672 0.203528 -0.341714 -0.402277 -0.344004 -0.184197 0.001879 0.258473 0.421984 -0.586098 -0.187303 -0.216281 -0.129645 0.264607 0.184238 -0.002815 -0.355000 -0.102450 -0.023172 0.375021 -0.052172 0.190305 -0.069626 0.406849 -0.428952 0.481634 -0.032061 0.279536 0.014843 -0.003845 -0.582373 0.262940 0.475702 
100944 -0.320311 0.008928 0.094331 -0.407464 0.137678 -0.204132 0.089248 -0.524475 0.173582 -0.190782 -0.196486 0.123553 0.366004 -0.221334 -0.212770 -0.205332 0.122877 -0.017822 0.031487 -0.038866 -0.631940 -0.051245 -0.197397 0.075095 -0.191390 0.168767 -0.151249 0.042456 0.043666 0.111896 -0.188330 -0.419423 0.184834 0.076606 -0.166241 0.439700 -0.337683 0.149736 -0.135955 -0.526455 -0.330187 0.209287 -0.025051 -0.258223 0.073253 -0.326862 0.031007 -0.091706 0.043661 0.648710 0.156285 0.452872 0.191552 -0.022430 0.009007 -0.158116 -0.165678 -0.210961 -0.121611 -0.040201 -0.240621 -0.204437 -0.079995 -0.383026 -0.147160 -0.100990 -0.369106 -0.020218 0.210446 0.035811 0.087555 0.203796 0.143712 -0.109267 -0.490559 0.219573 -0.330925 0.481695 0.261389 0.553665 -0.033972 -0.029903 -0.154227 -0.201602 -0.109855 0.119923 0.011890 -0.124955 -0.124686 0.262067 0.103937 -0.000021 0.618477 -0.211298 0.073174 0.142277 -0.008415 0.206188 0.213231 -0.384617 -0.395094 -0.294277 -0.450358 0.209845 -0.044787 0.082081 -0.066122 0.151435 0.304620 0.167230 0.076837 0.042048 -0.060094 0.617122 0.154459 -0.087843 0.568440 0.097643 -0.091701 -0.292658 -0.169501 -0.240113 -0.059900 0.016500 -0.268223 -0.169460 -0.262970 0.232251 -0.234075 0.387347 -0.164595 -0.473647 0.052809 0.202869 -0.112884 -0.111881 0.193868 -0.223574 0.150654 0.158960 0.097958 -0.122783 0.089747 0.096071 -0.189772 0.389362 -0.239750 0.181028 0.134481 0.105500 -0.388081 0.785145 0.172098 0.761452 -0.153233 -0.110067 -0.277061 -0.385953 -0.184686 0.198425 -0.191777 0.142281 0.112253 0.329303 -0.030998 0.140078 -0.129241 0.005520 0.140421 0.156228 -0.190613 0.198810 0.098457 -0.133687 -0.120177 -0.220342 -0.073153 0.271102 0.194726 0.034650 -0.168208 -0.215149 -0.039886 0.081837 -0.208977 0.091956 0.095880 -0.277010 0.004088 -0.098642 0.475874 -0.385531 -0.099765 -0.177138 -0.128082 0.244588 -0.282322 -0.139288 0.275656 -0.082142 
127495 0.113339 -0.449882 -0.212395 0.032119 0.183009 0.286808 0.054718 -0.178777 0.309882 0.054987 -0.013168 0.091882 -0.199943 0.207011 -0.024572 0.120780 -0.102406 0.340998 -0.020626 0.154613 0.027807 -0.223568 -0.326946 0.316942 0.248744 0.154752 -0.260440 0.241565 -0.256879 0.278990 -0.107619 -0.299332 -0.383756 -0.018699 -0.026209 -0.000305 -0.091717 -0.069871 0.088844 0.322833 -0.002242 -0.168024 -0.239185 -0.241209 -0.033639 -0.011499 -0.162868 -0.259567 0.150432 0.214823 0.123517 -0.254950 0.412898 0.145103 -0.514767 -0.326426 -0.154590 0.202381 0.231120 -0.456709 -0.584986 0.004901 -0.544265 0.122767 0.194195 -0.169577 0.098746 -0.173359 -0.103945 0.052917 0.041982 0.582115 0.061325 -0.225852 0.325340 0.052054 -0.042241 0.285554 0.309737 0.213808 -0.110842 0.209138 -0.081785 -0.140093 -0.147588 -0.020501 0.117583 -0.026322 -0.096122 -0.386209 0.184557 0.020002 0.009065 0.363513 0.025841 -0.191841 -0.016316 0.125330 -0.281571 -0.245260 0.018127 -0.055438 -0.192418 0.166242 0.019500 0.082708 -0.049413 -0.042357 -0.392076 -0.018988 0.008786 0.519350 -0.163883 -0.052330 -0.378223 0.134245 -0.061796 -0.331831 0.088388 -0.062900 0.156282 0.152077 -0.073353 -0.098169 -0.131341 -0.240152 -0.130264 0.007730 -0.148864 -0.235874 0.107541 0.224077 -0.444818 0.742022 -0.317224 -0.026290 -0.409934 0.010124 -0.150053 0.295644 -0.176898 0.128448 -0.078675 0.482342 0.378862 0.225970 0.157574 0.066016 0.375043 -0.134101 -0.205562 -0.312209 -0.163427 -0.113907 -0.009551 -0.084565 0.136442 -0.182223 -0.170239 0.675216 -0.261029 0.448438 -0.153704 -0.234319 0.114530 -0.009539 -0.289603 -0.177924 -0.182349 -0.177536 0.438349 0.338290 -0.125743 0.042031 0.031834 -0.301161 -0.262750 0.460182 0.154749 0.230883 -0.159535 -0.107102 0.158543 0.090273 -0.009144 0.176557 -0.188517 -0.084395 -0.302971 -0.215027 0.143182 -0.226334 -0.182678 0.252676 0.360682 0.038278 -0.150416 0.164936 0.453705 -0.022642 
128924 -0.638593 -0.044907 0.357369 0.100616 -0.097269 -0.077354 0.111644 0.460155 0.063247 0.075246 0.079032 0.135399 -0.110036 0.057124 -0.050954 0.043084 0.153559 -0.114045 0.563359 0.210499 -0.564703 0.114733 -0.293261 0.235803 0.107559 0.132194 0.111406 0.080335 0.110548 0.621794 -0.085062 0.299671 0.189445 0.306491 -0.238549 0.326598 -0.074318 -0.126801 0.337243 0.091266 0.047559 -0.140961 0.931238 0.060424 -0.139791 0.082386 -0.170963 -0.018282 -0.198434 -0.203995 0.200369 -0.129999 -0.021699 0.018442 -0.213426 -0.175260 -0.489615 -0.766054 0.670966 -0.723213 -0.252899 -0.430058 -0.245370 0.146518 -0.429162 -0.055728 0.289878 -0.305018 0.318292 0.529968 0.605179 0.351290 0.061448 0.416678 0.209121 0.413407 0.233202 0.141336 -0.143779 0.162337 0.247135 -0.240341 0.018501 0.315078 0.515955 -0.106398 -0.137352 -0.310590 -0.213025 -0.114746 0.115294 -0.069750 0.438618 -0.519342 -0.422461 -0.078999 0.091759 0.564920 -0.044598 -0.254103 0.195733 -0.133749 0.016165 0.215511 0.279870 -0.092196 0.101481 0.036028 -0.269690 -0.154265 0.236367 -0.127938 0.353990 -0.106153 -0.267372 -0.404428 -0.043372 0.180655 0.275356 0.420058 0.427156 0.557289 -0.327912 0.496141 -0.476162 0.327633 0.183904 0.312702 0.058587 -0.050642 -0.295828 -0.207613 -0.040213 -0.151800 0.255742 -0.273313 0.060596 -0.170904 -0.465603 0.030935 0.210999 -0.197968 -0.390315 0.110292 0.232563 0.026752 0.053512 0.111683 0.365576 0.266221 -0.440942 0.003426 -0.017497 -0.452315 -0.049019 -0.375523 0.436771 0.049477 0.309330 0.050684 0.185255 0.687987 0.464726 0.130264 0.026991 0.243518 -0.446306 -0.155145 0.125976 -0.285961 0.220546 0.050228 -0.028458 -0.400439 0.233330 -0.209384 0.206000 -0.388958 0.150270 0.451218 -0.215186 -0.378745 -0.364771 0.302050 0.106882 -0.264068 -0.220851 -0.208910 0.310850 0.005765 0.249496 -0.580555 0.156498 -0.066160 -0.121101 0.290202 -0.302338 0.250137 0.348443 0.305852 
115677 0.276258 -0.330284 0.111343 -0.377367 0.600098 -0.281677 -0.068986 0.340665 -0.012772 0.004649 0.100845 0.165304 -0.093676 0.053408 0.063158 -0.238124 0.482683 -0.801200 0.347947 0.035070 -0.327515 -0.148839 0.076269 0.152249 -0.042402 -0.031615 -0.030567 0.090590 -0.239719 0.345150 -0.233511 -0.302630 0.119184 0.064821 -0.141904 0.099004 -0.085375 0.043358 -0.182470 0.190542 0.448045 0.350346 -0.264433 -0.610829 -0.120557 -0.652350 0.027314 0.095359 -0.182840 0.528400 -0.005501 0.144434 0.105620 0.141930 -0.381254 -0.162458 -0.044569 -0.146816 -0.085699 -0.172737 0.312375 0.093195 -0.619692 -0.159015 -0.207059 -0.203618 0.626693 -0.274341 0.252976 -0.108413 0.416950 0.137733 0.156718 0.256618 -0.057831 -0.485076 0.115279 0.082175 -0.280724 0.154824 0.360714 -0.166466 -0.126005 0.239037 -0.086552 0.189900 -0.004501 -0.205702 0.104102 0.259969 -0.111604 0.298524 0.318132 -0.227718 0.037834 -0.011260 -0.350759 0.192441 0.262378 -0.272890 0.511454 -0.412535 -0.281903 0.304279 0.141285 0.366245 0.077076 -0.301162 0.629550 -0.150547 -0.110313 -0.330120 -0.310618 0.432395 -0.257739 0.383528 -0.156654 -0.097266 0.032703 -0.160057 0.167798 0.147309 0.176108 0.040770 -0.628834 -0.115325 -0.644445 0.378486 -0.112854 -0.217539 -0.211672 -0.121016 0.041593 -0.179095 0.148797 0.119063 -0.209128 -0.579713 -0.007349 -0.263971 -0.049647 0.333154 -0.033835 -0.045567 -0.399671 0.235030 0.423397 -0.434608 0.095285 0.037434 -0.333165 0.086088 -0.168660 -0.439350 0.063105 0.110867 0.220442 -0.360981 0.042007 0.012906 -0.311192 0.037875 0.385620 0.048992 0.268779 -0.061174 -0.452236 0.328440 0.503725 -0.003086 0.180408 0.416165 0.072357 0.080565 -0.102270 -0.146720 -0.505480 0.532099 0.031516 0.322721 0.265609 -0.454894 0.320760 -0.182041 0.140328 0.217774 -0.014571 0.318519 -0.047196 0.214961 -0.239269 -0.188921 -0.530328 0.245765 -0.193146 -0.317697 0.154394 -0.400289 0.289181 -0.234222 
185659 -0.317043 0.203363 -0.152495 -0.293545 -0.203935 0.182976 -0.226163 -0.207798 -0.071142 -0.316715 -0.250261 -0.098787 0.319054 0.124234 -0.024240 -0.269137 0.116812 -0.567598 0.121500 -0.235290 0.032003 -0.095223 -0.204189 -0.377253 0.218160 -0.242309 0.151769 -0.324460 -0.015877 -0.265603 -0.051229 0.394731 -0.086764 -0.094170 0.269149 0.507218 0.139402 -0.004120 -0.037420 0.037181 -0.077650 0.003094 -0.206507 0.338540 0.404973 -0.238814 -0.117105 -0.058462 0.048176 0.015127 -0.254831 0.221994 -0.000551 0.007316 0.164664 -0.342761 -0.368443 0.140476 -0.019122 0.013677 -0.078793 0.263967 -0.472176 0.003768 0.140393 0.110945 0.091035 0.137372 0.048310 -0.150324 -0.406267 0.242140 -0.293733 0.137155 -0.243773 0.687056 0.230398 -0.053853 -0.011438 -0.056667 0.330501 -0.189270 0.449064 0.183832 -0.159119 0.191512 0.175445 -0.254787 0.056600 -0.497109 0.479589 0.101931 0.286657 0.061889 0.278694 -0.012587 0.458312 -0.205753 -0.391505 0.193363 0.238155 0.061929 0.030960 0.066403 -0.178697 -0.013102 -0.332862 -0.253337 -0.136063 -0.139563 0.025193 0.272144 -0.270621 -0.139943 0.214502 -0.133469 0.068090 0.164161 -0.035918 0.298613 -0.034801 0.036805 -0.215566 0.206212 0.441320 0.109731 0.371029 0.062735 -0.281758 -0.078236 -0.302576 -0.033018 -0.446646 0.043460 0.373834 0.116401 0.142990 0.058964 0.445875 -0.122118 0.350940 -0.075750 -0.377619 -0.227960 0.017799 -0.169637 0.156857 0.013469 0.047176 -0.466825 -0.042975 -0.083852 -0.154386 0.073671 -0.048325 0.384101 0.250945 0.084353 0.020697 -0.227109 0.259144 0.121222 -0.144623 0.066575 0.082884 -0.087282 -0.000592 -0.135229 -0.238712 0.165554 0.015415 -0.089605 -0.106233 -0.142599 -0.264159 0.237361 -0.066944 0.017248 -0.238846 0.231634 0.111005 0.197119 0.118354 0.005583 -0.093424 0.256510 -0.414931 0.135668 -0.170652 0.126009 0.191259 0.283530 0.095170 -0.372772 -0.417338 -0.032721 -0.130620 0.197705 -0.055039 0.232353 
125810 -0.312663 0.373143 0.088629 0.588449 0.066158 0.450665 -0.176978 0.155091 0.040532 -0.388390 0.671196 0.120732 -0.079004 -0.374945 0.288034 -0.404997 0.402614 -0.574863 0.582663 -0.083458 0.108952 -0.475803 0.248705 0.101270 -0.091837 0.311300 -0.077608 -0.073721 -0.229368 0.296761 -0.264005 -0.190361 0.202690 -0.070196 -0.166890 0.302278 0.038819 0.123144 0.227648 0.214383 -0.332479 0.465799 -0.138392 -0.755101 0.353268 -0.578829 -0.503742 -0.140964 -0.497656 0.432207 0.169493 -0.285941 0.743978 -0.538366 -0.228943 -0.348698 -0.086023 -0.481257 0.099442 0.082157 0.379340 -0.189968 -0.647374 -0.442339 0.442905 -0.254329 0.417459 0.220935 0.122627 0.125843 0.354910 0.509457 -0.258480 -0.214093 0.072963 0.119876 0.375600 0.463006 0.074151 0.309690 -0.414602 0.291699 -0.580687 0.396959 -0.232811 -0.301376 0.443533 -0.301884 0.345721 0.179732 0.246785 -0.056892 -0.055090 -0.083010 -0.099400 -0.012953 0.239668 0.174887 0.496055 -0.025164 0.087558 0.237496 0.416974 0.246091 -0.207730 0.116655 0.486531 -0.234643 0.221173 -0.271980 0.359006 -0.128809 -0.115991 0.311523 0.144895 -0.676947 0.249871 0.053070 -0.021507 -0.516877 0.409162 0.172249 0.683872 0.258070 -0.049223 -0.045302 0.581426 0.210849 0.012788 0.234179 0.313261 0.319550 -0.048415 0.297801 -0.326958 -0.326421 -0.041840 0.006488 -0.299533 -0.225390 0.146686 -0.128289 0.353546 -0.229697 -0.306331 0.121582 -0.094899 -0.061794 0.051207 0.248671 -0.290780 0.672048 0.199874 -0.029318 0.666257 0.028398 -0.221489 -0.047363 -0.376900 0.378544 0.210310 0.191831 0.370744 0.193152 -0.080031 -0.284856 -0.301115 0.067139 0.487318 -0.065249 -0.050992 -0.021173 0.170139 0.071448 -0.441685 -0.492438 -0.361685 0.145180 -0.179099 0.228706 -0.192385 0.246888 -0.469859 0.467562 0.218821 -0.042891 0.326639 0.317161 0.012387 -0.598849 0.093775 -0.000297 0.068071 -0.518857 0.070533 -0.523697 -0.081345 -0.410194 0.339303 -0.346013 
138292 -0.043098 -0.067427 0.282736 -0.087764 -0.040138 -0.014494 0.189237 0.204725 0.341971 -0.384411 -0.742237 0.764993 -0.432708 -0.886871 -0.185812 0.267874 0.067330 0.052790 -0.051393 0.002909 -0.493563 0.135321 -0.194528 0.129619 -0.153979 -0.540126 0.594361 -0.154271 -0.301542 -0.142532 0.399372 0.434122 -0.243174 0.574479 0.581875 0.592339 -0.370084 -0.403149 -0.264386 0.031609 -0.249192 -0.274321 -0.258984 0.213664 0.230745 -0.852282 0.305039 0.149723 -0.266921 -0.115280 -0.346660 -0.756750 0.437121 -0.130152 -0.336125 -0.196322 0.325435 0.060691 -0.140623 -0.105284 0.257321 0.373394 -0.244639 -0.221314 0.066106 -0.215737 0.104660 -0.731303 0.280042 0.033667 0.111458 0.925664 -0.428529 0.067889 -0.202899 -0.130846 0.232977 -0.038841 0.968545 0.319575 0.462742 0.219734 0.192218 0.652363 0.534077 -0.339308 -0.232739 -0.236244 -0.024856 -0.215163 0.250848 0.092332 0.992072 -0.050095 0.569042 -0.105990 -0.290515 0.055712 -0.624153 0.546908 0.165213 -0.275253 0.151644 0.067519 -0.131114 0.438948 -0.418613 0.369587 -0.021457 -0.536547 0.247738 -0.223103 -0.506991 -0.378756 -0.291461 -0.157535 -0.569935 0.124999 -0.557583 0.378623 0.366147 -0.036408 0.590437 -0.195335 -0.480333 0.576467 -0.275440 -0.073974 0.311773 -0.331668 -0.631671 0.382703 0.368596 -0.473444 -0.575951 0.203330 0.267783 -0.648954 0.161712 -0.375526 -0.270702 0.147171 -0.005252 0.252313 0.069285 0.133085 0.128149 0.392281 0.028399 -0.101138 0.569225 0.134029 -0.173990 -0.285256 0.145611 0.056524 0.177366 -0.019990 -0.521397 -0.286921 -0.537514 -0.248958 -0.457043 -0.330990 0.294454 0.127493 -0.327189 -0.288899 0.229989 -0.124113 -0.445656 0.787587 0.014548 0.163837 0.203776 -0.229656 -0.150276 -0.383997 0.530952 0.546138 0.273832 -0.233616 0.123916 -0.346627 0.521369 -0.559919 -0.014201 -0.486699 -0.118529 -0.525661 0.319132 -0.306682 -0.056344 -0.137230 0.369089 -0.210654 0.402120 0.327236 0.327886 -0.150097 
58549 0.791080 0.423664 -0.113742 0.464437 -0.436382 -0.473700 -1.006235 0.451865 0.604454 -0.033684 0.665954 -0.685375 0.125325 -0.400612 -0.350964 0.162554 -0.525665 0.101352 -0.264753 -0.571564 0.505897 0.126845 -0.517598 -0.319922 -0.119482 0.455092 -0.390274 0.009886 0.354083 0.152651 0.405122 0.059525 0.355891 -0.162467 -0.399187 0.483649 0.242476 -0.972581 0.413350 0.221157 -0.170010 -0.887487 -0.876325 -0.208062 0.392319 -0.019893 -0.345594 0.829746 -0.109847 0.408153 0.435268 -0.306748 0.702034 -0.713308 -0.259750 -0.242891 -0.179096 0.169328 -0.084901 -0.312560 0.555196 0.455736 -0.115051 0.303686 0.138476 -0.479563 -0.606051 -0.033946 1.293877 1.750158 0.496941 0.206422 -1.061117 0.486671 -0.695610 -0.154104 0.396327 0.358344 0.257018 -0.287769 -0.285696 -0.248158 0.659194 -0.044988 -0.004241 -0.532066 -0.560346 -0.647797 0.507650 -0.128592 -0.690365 0.565096 -0.824542 -0.886838 0.350860 0.135839 0.258317 -0.730920 -0.152603 -0.244723 -0.158082 0.666967 0.819778 0.297461 -0.237553 -0.158814 -0.350676 -0.016911 -0.017723 0.445647 -0.312789 -0.508529 -0.756458 0.012210 -0.710071 0.336819 -0.698394 -0.174935 0.624479 -0.098498 -0.611044 -0.603469 -0.204464 0.612688 -0.065874 -0.908508 -0.217100 -0.776365 0.372120 -0.135813 -0.940551 -0.430639 -0.303018 0.030754 -1.011805 -0.139644 0.296303 0.063640 -0.284470 0.194643 -0.107172 0.578285 -0.412628 -0.630754 0.641944 0.414371 -0.403526 -0.373028 -1.038404 0.073295 -0.853065 -0.416355 -0.004091 0.187303 0.383568 0.258394 0.006396 -0.700933 0.274642 -0.234496 0.017504 -0.270506 -0.123383 -0.920498 0.890240 -0.342424 -0.156085 0.115482 -0.603505 0.206657 0.032605 -0.253602 0.535817 -0.411550 -0.000355 0.426666 -0.205765 -0.412806 -0.038814 0.165784 0.675995 -0.101096 0.212246 -0.172780 -0.498303 -0.837657 -0.077243 -0.239483 0.239874 0.178579 0.056295 0.478561 -0.568622 -0.685677 0.422216 -0.884118 0.246114 0.523170 -0.043377 -0.092692 
40490 0.076299 -0.347440 -0.729180 -0.291486 -0.220065 0.758084 -0.299425 -0.042883 0.116296 0.119004 -0.573864 -0.103366 0.149671 0.013753 0.073359 -0.259135 0.298106 0.238869 0.070808 -0.422182 0.048567 -0.119383 0.481766 0.275284 -0.210997 -0.255875 -0.301687 0.407065 -0.259867 0.073536 0.261443 -0.197220 0.349745 0.579153 0.170139 -0.236050 -0.338401 -0.287212 -0.013493 0.091072 -0.035233 -0.617699 -0.256922 -0.192474 -0.077903 0.150808 0.298710 0.255148 -0.360057 -0.262045 0.343405 0.300591 -0.024990 0.113290 -0.227794 -0.369940 0.069010 0.057447 0.493230 -0.036098 -0.167122 -0.040988 0.184874 -0.430780 -0.017370 -0.447453 -0.098763 0.123338 0.395205 -0.003617 -0.205684 0.002539 0.405440 0.310426 0.616864 0.138235 -0.122824 0.254407 0.643746 -0.304108 -0.507761 0.457713 0.363248 0.255878 0.184945 0.138607 0.140328 0.207344 0.210758 0.164720 -0.033205 0.207344 0.274697 -0.641300 -0.497516 0.291180 0.316347 -0.014116 0.077618 0.618481 -0.055858 -0.034373 -0.564003 1.082293 0.074358 -0.424723 -0.206280 0.296669 -0.170772 0.518507 0.255421 -0.278311 -0.082991 0.178721 0.181599 0.153933 -0.265762 -0.426394 -0.193692 0.168036 0.397090 -0.074681 0.244316 -0.019631 -0.450214 -0.324121 -0.296062 0.112491 -0.160852 0.022469 -0.156763 0.048920 0.261566 -0.288821 0.068114 -0.360838 -0.008988 0.410554 0.215691 0.104794 -0.009811 -0.299104 -0.051691 0.643492 0.259234 0.043349 -0.265656 0.218974 -0.202176 0.379565 0.315724 -0.127847 0.091728 0.315834 0.253644 0.120391 -0.855209 -0.430240 -0.312970 -0.801335 0.032604 0.068566 -0.396428 0.183083 -0.248312 -0.194333 0.624027 -0.558831 -0.005165 0.327758 -0.201755 0.132673 0.004767 0.836867 -0.141535 0.299460 -0.053231 -0.068657 -0.253873 -0.280723 -0.295662 0.210702 0.313238 0.071445 0.089187 -0.136543 -0.797533 0.062483 0.241092 0.116366 -0.609499 -0.121993 -0.176044 0.516560 -0.206965 0.158775 -0.467433 -0.061769 -0.289392 0.109526 
138134 -0.567017 0.023193 -0.020195 0.131949 0.255274 0.209744 0.445716 -0.000515 0.365973 -0.042796 0.092171 -0.228346 0.284978 0.110419 -0.067807 0.238718 -0.236248 0.076592 0.139787 0.445897 -0.546244 0.290294 0.587128 -0.168205 0.329156 -0.240349 0.457589 -0.339112 0.343240 -0.064448 0.118959 0.084991 -0.463552 0.045190 0.354218 0.031573 0.022963 -0.769290 -0.482814 -0.229630 0.159569 -0.068176 0.273827 0.135730 0.494607 0.230301 0.399386 0.745015 0.105038 0.196902 -0.194699 -0.472370 0.837248 -0.061057 0.138517 -0.010119 -0.299163 0.163441 0.001149 -0.127132 -0.391723 0.520726 0.058271 0.345466 0.509572 0.158988 -0.110599 0.307981 0.267473 0.237518 0.302404 0.394365 -0.386574 0.401498 -0.336103 -0.054226 0.502908 0.143473 0.309488 0.288327 0.957271 0.139719 0.100248 0.121724 -0.239112 0.182543 0.181436 -0.326727 0.447010 -0.102186 -0.069269 -0.327337 -0.345159 0.256080 -0.289112 -0.036507 0.157728 0.108176 -0.719731 0.216997 0.513728 0.098851 -0.006273 -0.332290 -0.233633 0.080705 0.325837 -0.014602 -0.201812 -0.226860 -0.178254 -0.291991 0.065223 -0.002585 0.401451 -0.393525 -0.441359 0.425270 0.051671 -0.353203 -0.290272 -0.434406 0.509790 -0.348148 0.086248 0.092412 0.067790 0.179278 -0.086517 -0.279065 0.785322 0.182939 -0.344409 -0.046352 0.250591 0.433335 -0.065348 -0.202942 -0.088945 -0.130958 -0.245640 0.090944 -0.197664 0.344342 0.022858 0.026440 0.429140 0.256132 0.230253 0.441165 0.315109 -0.608206 0.426930 -0.035619 -0.017877 0.082486 -0.039058 -0.022165 -0.318556 0.192334 -0.152845 -0.229970 -0.235668 -0.519167 0.596937 -0.113530 0.106237 -0.067808 0.129259 0.248271 0.286190 -0.056498 0.000235 -0.026899 0.260891 -0.074677 0.106798 0.342379 0.159142 0.218816 0.162213 0.108390 0.060614 -0.007813 0.468950 0.093880 0.813255 -0.424907 0.314480 0.010089 0.389476 -0.397949 0.083049 -0.121370 0.415687 0.109657 -0.213602 0.078945 -0.233780 0.065906 
52857 0.360162 -0.095010 -0.658355 -0.191478 -0.154720 0.525649 -0.071891 0.346027 -0.273041 -0.402875 0.143732 -0.436383 0.485820 0.450293 0.303745 -0.148018 -0.121869 -0.033073 0.221060 -0.396616 0.290811 0.145679 0.504225 0.310967 -0.322563 0.054950 -0.706230 0.365747 0.265744 -0.383711 -0.018347 0.323828 0.276117 0.699992 -0.242479 0.029886 -0.475370 0.521994 -0.123648 0.197976 0.398046 -0.023831 -0.289242 -0.388003 -0.528555 -0.132795 0.385587 0.125646 -0.163801 -0.354265 -0.248959 0.232384 -0.068283 0.434395 -0.035052 0.285783 -0.002527 0.170099 0.444407 -0.284591 0.046612 -0.378468 0.098157 0.088734 -0.350041 -0.597068 0.223450 -0.462460 -0.182378 -0.046665 0.389217 0.481822 -0.130049 -0.479602 0.465855 0.106518 -0.150918 0.115327 -0.009219 0.662990 -0.546477 0.450521 0.164650 -0.434208 -0.187195 -0.129943 -0.444357 0.261586 -0.267896 -0.138572 -0.366281 0.073036 -0.484958 -0.404088 -0.138079 -0.130290 0.206487 -0.027658 0.082497 0.369360 -0.049859 -0.252264 0.100669 0.492022 0.352521 0.043938 0.441654 0.303883 -0.269000 -0.472534 -0.260181 -0.285129 -0.052035 0.277048 0.259113 -0.510533 0.389273 -0.053167 0.439189 -0.274305 0.214949 0.266939 0.251058 0.452997 -0.067153 -0.366619 -0.112595 0.213350 -0.386845 0.135302 -0.056501 0.275781 0.036739 -0.474859 -0.086674 -0.738208 0.406799 -0.016811 0.047802 0.189323 -0.980340 0.343563 -0.000840 -0.223268 -0.967207 0.255201 0.242092 -0.304899 -0.104899 0.297226 -0.053901 0.238756 -0.298860 0.321166 0.659034 0.238634 -0.092195 -0.436886 0.443298 -0.155433 -0.000444 0.099387 -0.117482 -0.569459 -0.062969 0.126284 0.502825 -0.028725 -0.412304 -0.005300 -0.276196 0.446263 0.626890 -0.015228 -0.298119 -0.512379 0.090335 -0.315379 0.008585 -0.533091 -0.652764 -0.127122 0.249275 0.365849 0.173130 -0.164579 0.118841 0.567703 0.464060 0.323030 0.458645 -0.678866 0.010041 -0.033470 -0.040406 0.895905 -0.324153 0.928392 0.167518 0.343498 
58457 -0.274794 -0.415276 -0.582407 0.583353 -0.795314 0.506204 0.167349 0.628217 0.714130 -0.201423 0.517885 0.404729 0.877591 -0.531826 -1.572944 0.920039 -1.675583 0.431070 -0.236421 0.110999 0.014579 -0.041079 0.616003 -1.164096 0.015531 0.438291 -0.131676 -0.545682 0.857948 0.032599 0.008581 -1.102490 0.780348 -0.445273 -0.604679 -0.802552 -0.065372 -0.111273 0.554543 0.413017 -0.665070 0.554738 0.618977 -0.116914 -0.295822 -0.874239 -0.102281 -0.031723 -0.290123 -0.490973 0.173155 0.035238 -0.489329 0.094495 -0.289084 -0.114221 -0.200570 0.032566 -0.444766 -0.213191 -0.841011 0.291711 0.412870 0.280559 0.960618 -0.449876 -0.017524 0.120140 0.682772 0.877446 0.448580 -0.011304 0.012416 0.039652 0.313295 0.715393 -0.308379 -0.019791 0.189028 -0.027989 -0.082370 0.354608 0.249535 0.460086 -0.335025 -0.391345 -0.361705 1.203860 -0.603896 -0.727106 -0.913939 -0.605520 0.813158 -1.172516 -0.211147 0.411387 -1.299075 0.285434 -0.350289 -0.002109 -0.269969 -0.361765 0.077485 0.160930 -0.352257 -0.470465 -1.086265 0.272406 -0.715674 0.064649 -0.070647 0.144757 -0.160394 0.632718 0.343083 -0.500892 0.244373 -0.418229 -0.147535 -0.259052 0.201386 -0.579566 -0.189651 0.813237 -0.614532 -0.351502 -0.009295 0.092248 0.834992 -1.148190 -0.675284 0.158116 0.558087 0.673766 -0.050728 1.238273 -1.327623 1.101992 0.539792 -0.124982 -0.497084 -0.030002 1.012305 0.235874 -0.530069 -0.843353 0.563575 -0.592560 0.167070 0.137864 -0.822077 -0.454228 0.669842 -0.055218 0.682038 -0.866229 -0.191296 -0.209649 -0.171922 0.454632 -0.197542 -0.917982 0.343801 -0.781450 0.464962 -0.554519 -0.436251 -0.281635 0.333045 0.483759 -0.445936 -0.222802 -0.688477 0.709263 -0.692107 0.420428 0.750766 0.515921 0.170535 -0.898558 0.438887 0.693886 0.271648 -0.307455 -0.420765 -0.152282 0.266897 -0.759845 1.053845 0.467490 -1.086287 1.936472 -0.005459 0.194519 0.355221 0.309237 0.855160 1.015306 0.394345 0.619470 
130350 0.099356 0.423845 -0.418853 -0.086663 -0.058687 -0.197741 -0.175693 -0.120669 -0.134552 -0.083475 0.010884 0.339744 0.000079 0.020763 -0.058738 0.128484 0.326644 0.011958 0.418295 0.709447 -0.452459 0.243726 -0.067544 0.194414 -0.213675 0.215619 -0.072579 -0.354283 -0.393201 0.144043 -0.125139 0.307928 -0.202859 0.063590 0.637729 -0.504098 0.474079 0.385721 -0.360349 0.075611 -0.504204 -0.211288 0.231831 0.063381 0.367118 -0.506573 -0.097103 0.685150 -0.196020 -0.383569 0.419766 -0.064157 0.624425 -0.460783 0.129817 -0.077720 0.168124 0.056343 0.077365 0.070200 -0.575547 -0.196203 -0.229107 0.080889 0.181577 -0.196599 -0.084415 -0.008257 0.438606 -0.304104 -0.103111 0.183917 -0.250475 -0.187642 -0.449303 -0.024702 0.598975 0.399023 -0.375688 -0.096588 0.512671 0.079514 0.063285 0.353379 -0.354485 -0.239226 0.015111 0.004548 0.491183 0.076787 0.583301 -0.167411 0.058262 -0.100614 0.081450 -0.080443 0.003552 0.254714 -0.311073 -0.075317 0.054149 0.021547 -0.320753 0.422362 -0.117600 0.054611 0.130750 -0.351720 0.288186 -0.193923 -0.457530 0.203025 0.118805 0.086911 0.497610 0.293908 -0.688752 0.149441 -0.006967 -0.313637 0.183376 0.128188 -0.228105 -0.598962 -0.024614 0.122261 0.146645 -0.307182 0.260050 -0.091233 -0.327364 -0.117594 -0.063681 -0.203186 0.058568 0.107114 0.270617 -0.299214 0.433968 0.456686 -0.383403 -0.229672 0.033789 -0.319531 0.212517 -0.101105 -0.143942 -0.041546 -0.378448 -0.071580 -0.202013 -0.167447 -0.322474 0.145054 0.391181 -0.323589 -0.248654 -0.510198 0.069817 -0.011872 0.030029 -0.104061 -0.266459 -0.272360 -0.417601 0.276140 0.288749 -0.013675 -0.052994 -0.182745 0.322933 0.064394 -0.067933 -0.117149 0.363496 -0.282000 0.055917 -0.171768 -0.151321 -0.027059 -0.296192 0.115097 0.006765 -0.566535 0.006364 -0.062810 -0.016614 -0.196620 -0.468510 -0.062475 -0.228991 -0.214537 -0.127361 0.379086 0.257496 0.052042 -0.253709 0.656245 0.356385 -0.042288 
174997 0.246037 -0.053419 -0.223866 0.290767 -0.134971 -0.353133 -0.313544 0.073756 0.429861 0.246912 -0.156824 -0.090627 -0.251214 -0.052120 -0.010933 -0.234648 -0.312391 -0.566442 0.178383 -0.005566 -0.568551 -0.022484 -0.248407 0.376109 0.309627 -0.504842 0.479615 0.089720 0.275109 0.433283 -0.525936 -0.101340 -0.117698 -0.226557 -0.286143 -0.447823 0.349759 -0.071566 -0.272327 -0.172843 0.093634 0.090573 0.327513 0.071159 0.506279 -0.614281 0.175394 0.621512 -0.026114 0.370347 0.087400 0.144480 0.983607 -0.529961 0.299960 0.366321 -0.123006 -0.268175 -0.281859 -0.082320 -0.451641 0.089687 -0.041705 0.293118 -0.213937 -0.358505 0.017540 -0.099800 -0.471935 0.313594 0.243873 0.643377 0.268142 0.046971 -0.321433 -0.050436 0.458010 0.121213 0.354941 0.212090 -0.870831 -0.224222 0.642034 0.108928 -0.199724 -0.535465 -0.144274 -0.156549 -0.346846 0.127008 0.289880 -0.331582 0.075276 -0.096704 0.359408 -0.422873 0.205868 -0.052306 -0.572558 0.374662 -0.241355 0.041953 -0.309302 -0.135355 -0.025970 0.246730 -0.332883 -0.490794 -0.004674 -0.252119 0.658300 0.408403 -0.113410 0.141815 -0.236627 -0.418599 -0.162788 0.438280 0.455357 0.211483 0.123502 -0.004215 -0.092961 -0.049779 0.126268 0.017458 0.002451 0.402754 0.502644 0.066255 -0.140205 0.044757 -0.190245 -0.227192 0.107753 -0.411576 0.002195 0.580921 -0.398343 -0.260982 -0.071310 0.834290 0.402792 0.149256 0.415387 0.136576 0.243387 0.101703 -0.302363 0.218020 -0.341897 0.206208 -0.322599 0.049263 -0.250039 -0.063406 0.104094 -0.164652 0.156069 -0.326857 -0.412241 0.125006 0.214406 -0.253144 -0.272804 -0.752290 -0.215097 0.207021 0.347979 -0.029757 0.492749 0.055425 0.203431 -0.367768 0.317249 -0.097894 -0.274699 -0.043887 -0.402714 0.219810 -0.567891 0.324018 0.098108 -0.236765 0.209249 0.526557 -0.584791 0.541637 -0.168521 -0.424120 0.320510 0.026520 -0.536036 -0.569120 0.441767 -0.333417 -0.376127 0.012085 -0.100502 -0.320576 
202461 0.746032 1.194837 0.374385 -0.588211 0.104552 -0.019635 0.685101 -0.169663 0.461889 -0.925462 -0.021207 0.268564 -1.011417 -0.139610 0.587494 -0.117930 -1.405847 -0.277952 -1.448110 -0.443146 -1.299223 0.150570 -0.975127 -1.062086 0.469766 -0.859338 0.144108 0.076612 -1.092352 0.002694 0.461422 -0.142872 -0.248035 0.316342 -0.213960 -0.905841 -0.661097 0.615514 -0.517293 -0.267468 -0.063513 0.353080 -0.121298 0.058537 1.227108 -0.021222 -0.748605 0.562692 0.300756 -0.945569 0.239533 -0.271973 -0.364955 -0.281126 -0.342610 0.026611 0.239265 0.737590 0.070897 0.395679 -0.770464 0.362781 -0.952156 -0.261033 -0.091557 0.143865 -0.518396 0.497293 0.661228 -0.341304 0.080211 1.813774 0.062553 -0.109491 0.252717 -0.161922 0.488356 0.440978 0.442994 -0.955533 0.459762 0.273513 0.415804 0.846480 -0.997317 -1.493525 -0.582781 0.605620 -1.631587 -0.864127 0.226458 -0.044324 -0.280337 -0.199666 0.086533 -0.752441 0.667496 -0.526884 0.400289 0.354404 0.341840 1.338095 0.221966 0.929825 0.531126 -0.708339 0.034484 0.337907 -0.352550 -0.794166 0.033643 -0.023475 -0.426546 0.449980 -0.381780 -0.973012 -0.150495 0.291179 0.179426 -0.355184 0.951644 0.432810 -0.141336 0.109494 0.371257 -0.515916 -0.126763 1.436231 0.383151 -0.626094 -0.279391 0.134521 0.850615 0.554721 -1.147005 -0.115346 0.332343 0.250178 0.419758 -1.003007 -0.124894 0.186179 0.408995 -0.022497 0.741364 0.381780 -1.183485 0.274529 0.527633 0.540090 0.051169 0.640706 -0.581176 0.354764 0.296334 0.319725 -0.441730 0.717630 0.477527 -0.213969 -0.183770 -0.106256 0.465697 0.295788 -0.143629 0.176353 0.467603 0.162627 -0.192028 0.557475 0.990865 0.949967 0.405403 0.021971 0.329905 0.104464 -0.294231 0.343168 -0.807115 -0.565527 0.139581 -0.329104 1.093605 -0.510521 0.516685 -0.204751 -0.359580 0.736076 -0.315956 -0.506173 -0.119176 -0.271835 -0.033132 0.187493 -1.042536 -1.077654 -0.138247 0.417119 0.772955 -0.037745 
200557 0.037687 -0.145287 0.246109 0.281243 -0.704878 0.327827 0.508666 -0.162488 0.190425 0.017253 -0.523691 -0.207725 0.004404 -0.043851 0.162381 -0.204781 -0.445272 -0.316628 0.086299 -0.388814 0.214870 0.704240 0.090059 -0.473723 -0.179463 0.372491 0.029143 0.353477 0.354979 -0.037092 -0.094524 -0.108391 -0.358011 -0.603053 0.149416 0.039753 0.354874 -0.333258 -0.009841 -0.025364 0.130966 0.129413 0.118216 0.503232 0.554148 -0.187924 -0.547249 -0.011582 0.035482 -0.514515 0.081630 -0.042888 0.211417 -0.116304 0.021360 -0.141334 0.203038 0.281684 0.145172 0.451888 -0.064733 -0.224884 0.024524 0.206791 0.080987 0.178237 -0.104330 -0.422943 0.467112 0.180671 -0.274992 0.358583 0.699769 -0.261163 0.167463 -0.125307 0.498840 -0.311681 -0.530152 -0.037700 0.299946 -0.154028 0.255582 0.593099 0.265808 -0.122458 0.546809 -0.243884 0.537606 -0.555924 -0.088322 0.565864 -0.241031 0.237499 -0.177444 0.455592 0.757930 -0.183950 0.232521 -0.145310 0.487148 0.251295 -0.214033 -0.255717 -0.153953 -0.340662 -0.786324 0.138405 -0.308654 -0.115259 -0.487365 0.203931 -0.637473 0.380319 -0.005905 0.190200 -0.240597 0.117588 0.169149 -0.389080 0.267908 0.060412 0.165950 -0.134919 0.343813 0.058485 -0.413180 0.196901 0.153668 -0.270297 -0.350851 0.152773 0.421249 0.123648 -0.567594 -0.228705 0.092565 -0.334228 0.190477 0.059141 -0.028108 0.061328 -0.243004 -0.146510 0.201031 0.103672 -0.117529 0.500851 0.275497 0.209972 -0.297816 -0.258171 -0.008289 -0.137961 -0.094448 0.237705 -0.176343 -0.081098 0.141831 0.255560 -0.194033 -0.200243 0.221597 0.254450 -0.091395 0.081879 0.235288 0.054938 0.126531 -0.401206 -0.110997 -0.126410 -0.059460 -0.353309 -0.473095 -0.188434 0.191869 0.106398 0.032114 -0.735674 -0.088670 -0.307959 0.356438 0.216494 0.574468 -0.030681 0.057976 0.256323 -0.091752 -0.842782 0.212916 0.348394 0.482649 0.158765 0.128897 0.287956 -0.363724 -0.052629 -0.207879 -0.433082 
178172 0.163703 -0.195325 -0.243747 0.238106 -0.417071 -0.148588 -0.383457 -0.194807 -0.041398 0.091608 -0.120734 0.295586 -0.214676 0.049775 0.205388 -0.313176 -0.745925 -0.110086 0.004826 0.017344 0.104718 0.199686 -0.071227 0.273509 -0.406533 -0.438161 -0.063247 0.257603 -0.469777 0.006384 0.351090 0.263746 0.060724 -0.430360 -0.202344 0.399095 -0.030777 0.086282 0.029560 0.602444 0.187991 0.037553 0.316556 0.220323 0.233443 -0.077680 -0.142567 0.116282 -0.031608 0.187902 0.147731 -0.037595 0.431601 -0.433812 0.666109 -0.228768 -0.663610 -0.408071 -0.019945 -1.070769 -0.661050 0.034044 -0.023567 0.290676 0.295048 0.231774 -0.225080 0.067308 0.012661 0.018645 0.288309 0.508145 0.430872 -0.134525 0.038144 -0.104043 -0.018321 -0.290488 -0.288022 0.084448 0.143200 -0.225093 0.035174 0.456076 -0.063093 -0.287379 0.198825 0.234660 0.344564 -0.230848 0.284559 0.087538 0.622688 0.230140 0.036630 0.054596 0.143523 -0.044569 -0.243469 -0.538797 0.338956 0.149896 -0.017966 0.103030 0.095216 0.104138 -0.540136 0.042979 -0.255435 -0.561655 -0.024714 0.094334 -0.362827 0.210402 -0.005331 0.027456 0.298114 -0.513869 0.164784 0.039575 0.157293 0.078688 -0.124667 0.044602 0.081019 0.073363 0.215184 -0.012687 -0.186441 -0.079257 0.087706 -0.236955 -0.004886 -0.260007 -0.167818 -0.130024 -0.197917 -0.247358 -0.193806 0.018235 -0.032854 0.285779 0.398231 -0.381421 0.279301 0.367588 0.107759 -0.149827 -0.214645 -0.152461 -0.033025 -0.136059 -0.121108 0.553087 -0.582123 -0.422509 -0.154365 -0.087264 -0.471619 -0.383497 -0.561353 -0.157156 -0.161750 0.424639 -0.128167 -0.621268 0.073023 -0.362625 -0.548477 -0.153011 0.279762 -0.072662 -0.036805 -0.373868 0.188127 0.233846 -0.264481 -0.175901 -0.056973 0.105820 -0.263167 0.492008 -0.148125 0.188327 0.450398 -0.177490 -0.431238 -0.181999 0.330643 0.087964 -0.201238 0.091435 -0.099314 -0.202899 -0.283928 -0.027114 0.139731 -0.398552 -0.252790 -0.351899 
175681 -0.305292 -0.385810 0.157327 0.207693 0.196462 -0.626535 0.203363 -0.265739 0.174376 0.063954 0.078006 -0.090037 0.134464 0.271140 0.027134 -0.114760 -0.041080 -0.279131 0.177842 -0.161138 -0.090540 -0.132501 -0.756343 0.248465 -0.729213 0.071271 0.876754 -0.106407 -0.666714 0.060721 0.149072 0.140994 0.254224 0.084126 -0.090793 -0.300140 0.262375 -0.316587 -0.279483 0.102340 0.111846 0.248595 0.224955 0.241051 -0.204164 -0.108815 -0.232173 -0.054242 0.028856 0.131418 -0.370899 -0.410952 0.416976 -0.756794 0.464921 -0.084483 -0.180369 -0.491256 -0.234413 -0.081485 -0.468185 0.862677 -0.689917 -0.328947 0.284224 0.196215 -0.147052 -0.358769 0.668127 0.458849 -0.164632 0.386857 0.494051 -0.238368 -0.158126 -0.009594 0.384433 -0.189395 -0.231819 -0.112357 -0.374504 0.563356 0.834104 0.640440 0.315375 -0.110377 0.118145 0.931890 -0.397336 -0.608278 0.389953 0.268435 0.073723 0.480724 0.104207 0.595457 0.047597 0.033034 -0.515084 -0.498568 0.311630 0.057456 0.356341 0.117714 0.569273 -0.119286 -0.722391 0.242498 -0.530450 0.161721 0.006265 -0.254800 -0.455340 0.335429 0.231227 -0.237380 -0.017035 -0.256001 0.101238 -0.243224 0.123616 0.386351 0.026403 0.159577 0.241767 0.140276 0.022426 -0.050752 -0.227782 -0.264478 0.082685 0.138541 -0.382927 -0.484981 -0.452807 0.317658 -0.141733 0.089912 0.250726 -0.480079 -0.339287 0.271307 0.492006 -0.142639 -0.057846 0.166082 0.129793 0.513837 0.181634 -0.014353 -0.204938 0.305272 -0.350542 -0.095842 -0.074271 -0.196371 -0.355208 0.207797 -0.032798 0.097283 -0.485892 0.138121 0.177679 -0.026972 0.116166 -0.158952 0.433329 -0.058173 0.108276 0.015019 0.051168 0.404346 0.237841 -0.222896 0.412218 0.077499 0.197241 0.201261 0.271962 0.038442 -0.132013 -0.176031 -0.566334 0.297099 -0.190429 0.452975 0.115637 0.121101 0.360909 -0.101208 0.501457 0.149249 0.453941 0.101844 -0.006331 -0.081070 -0.208112 0.016225 -0.627895 0.142937 
154613 0.039701 -0.294173 -0.232275 -0.030628 0.010389 -0.207551 0.120995 -0.070880 0.145417 0.055761 0.032505 -0.046298 0.022644 -0.407420 -0.142997 -0.053473 -0.270987 0.242030 -0.358756 -0.007359 -0.305345 0.479161 -0.149339 0.128708 -0.335221 -0.275672 -0.113683 -0.161686 -0.075927 -0.077369 -0.038714 -0.244208 0.201626 -0.213519 0.076255 0.027274 0.411734 -0.144044 -0.039615 -0.015551 -0.088729 -0.275617 0.163287 -0.082715 0.183157 0.157165 0.217813 0.422216 -0.287208 0.139407 -0.321787 0.316182 0.211232 -0.019151 0.017945 0.038347 -0.163514 0.151719 -0.396340 -0.113628 0.017464 0.210299 -0.332370 -0.596391 -0.278880 -0.211359 0.013636 0.266110 0.353755 0.031697 0.154201 0.235654 0.117004 -0.397053 0.026130 0.093316 0.648565 -0.102205 0.096880 0.190525 -0.181345 0.060444 -0.029241 -0.006035 -0.253662 -0.431089 -0.251738 -0.298062 0.029908 0.110022 0.175291 -0.093286 0.101797 0.457268 -0.033758 0.072030 0.241688 -0.269491 -0.559416 -0.351296 0.342307 0.036272 0.189224 0.291615 -0.123340 0.232384 -0.243051 -0.173881 0.051404 -0.245128 0.047378 0.206762 -0.365068 -0.041938 0.194331 -0.179751 0.123655 0.272797 0.006502 0.407179 0.135229 -0.029672 0.118559 0.221781 0.282545 0.307265 0.101228 0.239144 -0.375336 -0.359938 0.109360 0.208101 0.271119 0.033094 -0.006310 0.236105 -0.113608 -0.106327 -0.332689 0.110442 -0.018454 0.247969 0.166574 0.264263 0.086119 -0.123863 -0.008243 -0.000154 0.224893 0.065333 -0.197672 -0.071297 -0.002396 -0.425065 -0.480417 -0.150321 0.049893 -0.458134 0.025308 -0.022756 -0.145776 -0.068065 0.180829 0.198768 0.002920 0.218381 -0.275988 -0.232418 -0.327663 0.263967 -0.316981 -0.207039 0.048707 0.157477 0.319933 0.281891 -0.004474 0.354551 0.004042 0.316116 -0.116676 -0.093962 -0.097786 -0.247170 0.287102 0.124699 0.117650 -0.000445 0.097202 -0.405613 -0.040366 -0.053450 0.336219 0.101374 0.085254 -0.117486 -0.300311 0.199803 0.398167 0.043678 
209474 0.652748 0.794373 -0.635931 0.321133 -0.117180 -0.467343 -0.337193 0.681788 0.082410 0.000283 -0.735016 -0.704952 -0.309204 0.180052 0.077393 -0.168519 -0.414671 0.436555 0.650227 -0.471207 0.757074 -0.202781 -0.513921 0.595441 0.019783 0.763034 -0.434384 -0.105898 0.318854 -0.253525 -0.466974 0.673574 -1.101648 -0.088864 -0.370910 -0.107067 -0.576403 -0.067191 -0.297458 0.030607 -0.009010 -0.009498 0.266337 -0.829733 0.819583 -0.706945 0.740183 0.617295 -0.205475 -0.250273 0.216927 -0.169512 0.253476 0.307622 0.260562 0.208984 -0.063608 0.116481 0.551219 -0.066757 -0.991474 1.400372 0.333998 0.074772 -1.101291 -0.690370 -0.371195 0.567163 0.129191 0.995763 0.918091 0.174454 -0.638231 0.533073 0.941531 0.050835 0.442210 -0.308347 0.316244 -0.272801 0.599231 0.890408 -0.127689 0.465182 -0.646778 0.828423 0.476526 1.020862 -0.358142 0.366444 -0.265543 -0.490377 0.340975 0.602256 -0.107791 -0.017445 1.601724 0.013533 1.628938 -0.185534 0.296323 0.624779 -0.379296 0.199409 -0.232916 -0.005148 -0.093798 1.277081 -0.260351 0.544618 -0.051157 0.773401 1.327066 0.134918 -0.545973 -0.141959 0.598579 -0.658348 0.242344 0.342514 0.047863 0.595824 -0.140215 -0.167241 -0.712704 -0.128177 -0.060490 1.143365 -0.986279 -0.569405 -0.674515 0.784227 0.152565 0.343185 0.443784 0.899887 0.425696 -0.551117 -0.170708 -1.532935 0.894278 -0.139518 -0.753241 0.152927 -0.506047 0.604082 -0.540175 -0.052294 0.243338 1.012674 -0.235364 -0.108654 0.098987 0.263549 0.162197 -1.117551 -0.581152 0.060652 0.673573 -0.894351 -0.587101 0.172221 0.765785 -0.108760 0.714210 1.012171 1.616909 -0.526749 -1.131646 0.265839 -0.251014 -0.489249 0.841551 -0.145966 -0.050154 -0.186103 -0.403768 0.665936 0.363153 -1.135869 0.035182 -0.319468 0.928701 0.560840 0.051809 -0.916795 0.130441 0.087733 -0.262623 0.635859 0.278504 1.340736 0.197528 0.832899 -2.171593 -0.090194 0.045680 -0.113892 -0.337107 -1.444891 
210146 0.324947 -0.033498 -0.003530 0.031836 -0.144316 0.087405 -0.226395 -0.241398 0.116034 -0.230159 0.403867 0.177871 0.405385 -0.133008 0.226374 0.209841 -0.040740 -0.324535 -0.049499 -0.008984 0.268978 0.010444 0.036521 0.161044 0.118108 -0.240334 -0.022210 -0.304441 0.172988 0.029846 -0.034044 -0.345634 0.271515 0.446515 -0.608081 0.335567 0.283207 0.335663 -0.205608 -0.133619 0.304004 0.172150 -0.047630 0.322352 0.249678 0.053746 -0.383404 -0.528492 -0.082293 -0.187694 0.055402 0.095071 0.663764 -0.746883 0.035441 0.255905 0.380081 -0.453865 -0.332174 -0.222789 0.025392 0.313456 0.382735 -0.325884 0.304981 0.221081 -0.471655 0.563629 0.201871 -0.100098 0.023275 0.173838 0.157425 0.446642 0.244041 -0.193370 0.206777 -0.026734 0.263930 0.387911 0.355691 -0.035626 0.394606 -0.163846 0.245768 -0.061018 0.049065 0.400168 -0.369022 -0.074372 -0.259981 0.087765 0.148897 0.440533 -0.380107 -0.407707 -0.123797 -0.357389 -0.185419 -0.776541 0.341099 -0.492939 -0.201012 -0.059758 -0.271559 0.049527 -0.382220 0.620293 -0.018958 -0.738584 0.221465 -0.120175 -0.354666 0.007171 -0.242816 -0.432820 -0.479852 0.140088 -0.222075 -0.006724 0.265208 0.087099 -0.774228 -0.414613 0.254760 -0.368312 0.328053 0.000121 -0.005638 -0.272258 -0.187726 -0.018475 -0.119367 -0.035198 0.629994 -0.281260 0.066966 0.033068 -0.036313 -0.249985 -0.097396 0.148421 -0.008263 0.568384 -0.038921 -0.196083 0.137381 0.053486 -0.035488 0.012953 -0.094029 0.230504 -0.140128 -0.385900 -0.220524 -0.086708 0.306396 0.032925 -0.572401 0.143483 -0.121943 0.083768 -0.146308 0.310379 -0.532790 0.387899 -0.255876 -0.276978 -0.269252 -0.520433 0.042739 0.045894 -0.129271 -0.153194 -0.009603 0.045271 0.109604 0.024771 -0.122737 -0.146502 -0.122695 -0.070182 -0.169900 0.267359 0.134361 0.006480 -0.215138 -0.110650 0.030779 -0.177448 0.231625 -0.068312 -0.528879 0.089010 0.179194 0.265000 -0.087758 -0.435222 -0.041538 -0.056133 
150610 0.139664 -0.311762 -0.055435 -0.237186 -0.035104 -0.443401 -0.025956 0.360835 -0.238380 0.193348 0.181685 0.264241 0.206457 -0.117408 -0.323025 -0.222569 0.336204 0.011703 -0.335194 -0.107508 -0.019789 0.324300 -0.199246 0.083069 0.194474 -0.086402 -0.271159 -0.189627 0.136902 0.391550 -0.336651 0.136740 -0.345541 -0.660422 0.211968 -0.073228 0.048829 0.011612 -0.407946 0.153536 0.299599 0.299164 -0.008682 -0.254565 0.346549 -0.517793 -0.057980 -0.282529 -0.260772 0.170302 0.150666 0.141974 0.425785 -0.223717 -0.048808 0.146112 -0.350470 0.248677 -0.069519 -0.096985 -0.199199 0.110012 -0.201759 0.070934 -0.091580 -0.207819 -0.030884 -0.144487 0.244966 0.018282 -0.042236 0.282029 -0.278726 -0.612294 0.015132 0.218381 0.417166 0.041818 0.286726 0.322411 0.296420 0.063171 -0.044346 0.020809 0.110915 0.310879 -0.086789 0.207607 -0.127046 -0.224918 0.049569 0.021806 0.153053 -0.029695 0.219508 0.264182 0.410172 0.025094 -0.221402 -0.464808 0.152494 -0.036212 0.241819 -0.054966 0.030437 0.225904 -0.373879 -0.016764 0.117571 -0.003449 -0.060830 0.587112 0.177736 0.249899 -0.063273 -0.074403 -0.119628 -0.189302 -0.013505 -0.121510 0.198080 -0.065654 -0.148378 -0.058813 -0.259228 0.250813 0.494775 -0.066860 -0.032378 0.166962 0.445025 -0.083780 0.199631 -0.361860 -0.436141 0.471780 0.130859 -0.273970 -0.287108 0.526901 -0.299437 -0.047421 0.051023 0.201918 0.030843 0.006097 0.368621 0.248523 -0.352200 -0.239368 -0.204856 0.240677 0.038213 -0.552340 -0.149407 -0.163101 -0.063850 0.179564 -0.079448 0.231802 0.410831 0.263083 -0.234631 -0.234877 0.098825 -0.066542 -0.296494 -0.141715 -0.041125 -0.109340 0.104302 -0.308243 -0.139367 -0.062739 0.108003 0.224615 -0.558414 0.123263 0.562372 0.012138 0.363046 -0.018037 -0.412455 0.062042 0.015668 -0.069546 0.041853 0.173350 0.435035 -0.165019 0.063413 -0.523917 -0.156673 0.002337 0.343851 0.343454 0.112742 0.404283 0.308904 -0.198328 
155292 0.350835 0.132844 0.380976 -0.183038 -0.456421 -0.556759 0.086429 0.252679 0.168414 -0.321810 0.329344 0.207911 0.130134 0.369370 0.288098 -0.533903 0.115710 -0.858510 0.545242 0.198725 -0.198972 0.046396 -0.134602 -0.150766 -0.344780 -0.391428 0.234905 0.304076 0.189833 -0.169446 -0.186250 -0.476137 0.016118 -0.673639 0.579835 -0.287868 -0.404554 0.145155 -0.491473 0.291413 -0.111039 0.251916 -0.491929 -0.187429 0.191855 -0.646378 0.282352 0.121665 -0.427978 0.393282 -0.241781 -0.148476 0.143589 0.238638 0.113715 -0.296100 0.370816 0.098927 0.478935 -0.622838 -0.748022 0.214067 -0.575525 -0.748497 -0.065874 -0.087218 0.364977 0.281463 0.290747 0.304866 -0.641909 0.452387 -0.196032 -0.136616 -0.218591 0.073605 -0.463032 0.494312 -0.003694 0.789489 -0.340838 -0.273989 0.050738 0.437793 0.070538 0.358106 0.572648 -0.319615 0.541167 0.574880 -0.740608 -0.666240 0.619826 0.315826 0.345183 0.110042 -0.163509 0.217589 0.420229 -0.601479 0.320551 -0.364515 0.250419 0.475256 0.216265 0.435219 0.273141 -0.157494 0.422528 -0.441128 -0.745118 -0.110537 -0.629849 0.147240 -0.383163 -0.017880 -0.196506 0.565813 0.256169 -0.810217 0.014925 0.167801 -0.668101 0.316666 -0.267496 -0.276755 0.288843 -0.124552 0.165889 -0.375170 -0.135557 0.548002 0.848881 0.253632 -0.193325 -0.257685 -0.283189 -0.055693 0.293200 -0.412903 -0.463064 -0.102339 0.173998 0.528902 0.729956 -0.600744 0.283291 -0.474043 0.043708 0.194814 -0.460251 0.352383 0.233080 -0.598136 0.257118 -0.179687 -0.590331 0.266765 0.019366 0.312224 0.072644 0.273538 0.524954 -0.410766 0.113862 -0.340079 0.331935 0.697874 0.420251 -0.085154 0.322584 0.400905 -0.017341 0.110472 -0.004143 0.268589 -0.231851 -0.274356 0.000970 0.139238 -0.476075 -0.181853 -0.262062 0.090983 0.351072 0.229106 -0.442129 -0.275378 0.489261 0.277396 0.293629 0.161341 0.091170 -0.280332 0.029435 -0.262753 0.102903 0.130568 0.232930 -0.652880 
135626 -0.151807 -0.298805 0.378459 -0.466795 -0.187756 0.176853 0.133303 0.164677 -0.202215 0.070002 0.025746 -0.297381 -0.196128 -0.123678 -0.076330 0.077776 0.750052 -0.329137 -0.055726 0.110526 0.101118 -0.295861 0.512342 0.568485 0.184803 -0.046681 0.153939 -0.270783 -0.068659 -0.214261 -0.225868 -0.476941 -0.198892 -0.323866 0.360946 -0.418236 -0.364138 -0.234938 0.133180 0.512668 0.145691 0.393976 0.132292 -0.091765 0.230453 -0.706587 0.188685 0.054639 -0.213399 0.219531 -0.196309 -0.172519 0.127610 -0.455545 -0.176608 0.168738 -0.328229 -0.748220 -0.092869 -0.133175 0.632187 -0.184160 -0.273770 -0.189851 0.268036 -0.736587 0.115157 -0.256270 0.082122 -0.029685 0.180232 -0.054805 -0.272077 -0.575262 0.173418 -0.490795 0.623562 0.179353 0.677182 0.253496 0.545880 0.466304 0.278753 0.604927 -0.351028 -0.127795 0.142653 -0.937912 -0.224828 -0.139620 0.273993 -0.081812 0.761128 0.170187 -0.373128 -0.443671 0.371112 -0.172172 -0.392977 -0.481144 -0.024951 -0.388259 -0.360137 0.229361 -0.089991 0.441851 -0.065772 -0.233337 -0.447645 -0.328451 0.585668 0.170416 0.090189 0.004004 0.421998 -0.005571 -0.378487 -0.030602 -0.065937 -0.300940 0.341719 0.068348 0.043679 -0.085745 -0.323157 -0.188356 -0.451387 0.249844 -0.035543 -0.317113 0.087154 -0.641401 -0.108883 -0.389904 -0.256015 0.087717 -0.116287 -0.225101 0.066396 0.068406 -0.015160 0.617426 0.580282 0.336799 -0.138728 0.040400 0.443682 0.376947 -0.056315 -0.189681 0.153848 0.350050 -0.474635 0.645944 0.059138 0.203517 -0.205762 0.405815 0.034468 0.291911 0.257704 -0.599933 0.178860 0.333944 0.361908 0.025953 -0.204874 0.158505 -0.042737 0.382256 0.171872 0.198092 -0.825713 0.177834 0.656952 0.162890 0.243254 0.133632 0.422955 -0.417934 -0.300637 0.315065 -0.439206 0.099339 -0.360000 0.433041 -0.258933 0.255549 0.125605 -0.026318 0.193207 -0.422235 -0.238674 0.240206 0.317506 0.223008 0.061293 0.061079 0.281186 -0.103142 
154994 0.296513 -0.002037 0.665162 0.264246 -0.025915 0.070917 0.410383 0.039633 -0.044064 -0.555251 0.060423 0.403069 -0.235932 -0.301976 -0.091084 -0.042376 0.086272 0.186285 0.236675 -0.171731 -0.220760 -0.192076 -0.093655 0.499737 0.005082 -0.313135 0.686358 0.136559 0.403251 0.611866 -0.762608 -0.067793 -0.232789 -0.094947 0.047641 -0.194294 0.188290 -0.046982 -0.249642 0.297314 0.428748 0.094429 -0.089875 0.111735 0.255927 0.159784 0.378403 -0.416984 0.176342 -0.016711 0.519693 -0.131622 0.710643 0.105380 -0.489232 -0.262006 -0.454656 0.343791 0.372815 -0.131058 -0.141082 0.213568 -0.605647 -0.596573 0.066231 -0.194274 0.650951 0.095034 -0.081423 -0.232367 -0.010448 0.351388 0.942281 -0.552286 -0.018077 -0.230826 0.127594 -0.085797 -0.106824 -0.483049 0.210854 0.103468 0.069859 -0.047413 -0.016877 -0.086667 -0.314370 -0.109343 -0.058783 0.124692 0.144832 -0.527511 0.643844 -0.224686 -0.281633 -0.052158 0.337062 0.476044 0.194219 -0.490759 0.288873 0.444424 -0.046830 0.241553 0.013253 0.118177 -0.143288 -0.355606 -0.120769 -0.484475 0.494721 0.245713 -0.823214 0.394865 0.162347 -0.311192 -0.242533 0.282892 0.284814 -0.117371 -0.042488 -0.050686 -0.276424 0.382927 -0.539533 0.130026 0.437626 -0.305659 0.374884 0.063534 -0.345616 -0.401846 -0.072285 -0.901366 -0.369577 0.123475 0.863094 -0.390176 0.157606 -0.806437 -0.155181 -0.437610 0.088838 -0.036250 0.286279 0.079667 0.211743 0.987814 0.653057 0.130215 -0.439534 0.342541 -0.464197 0.169742 0.116309 0.112128 -0.079086 -0.050299 0.334025 -0.129341 -0.507345 0.681989 0.693329 0.302300 0.247924 -0.000823 0.028041 0.066035 -0.057388 -0.048905 0.004315 -0.011397 0.425269 -0.167991 0.244801 -0.078467 -0.586106 0.119742 0.011255 0.064734 -0.593056 -0.015186 -0.110315 -0.046387 -0.361196 0.359203 0.160801 -0.264331 -0.423673 -0.258785 -0.209778 0.488612 -0.321731 -0.276388 0.055116 -0.149588 0.079383 0.259088 0.240351 -0.288065 
97922 0.288530 -0.692287 0.907074 -0.227879 0.332098 0.039191 -0.169411 0.777151 0.355009 -0.141806 0.086988 -0.537089 -0.166880 0.252249 0.406680 -0.110559 -0.218635 0.018735 0.559868 0.107870 -0.585988 0.013605 0.563586 0.337567 -0.788865 -0.198220 -0.584554 -0.847349 -0.357463 -0.183481 -0.534475 1.153923 0.446888 -0.285609 -0.133700 0.179264 -0.295756 0.266622 0.111811 0.267126 -0.823838 0.032966 -0.349228 -0.267973 0.233208 -0.294147 -0.198127 0.349226 -0.487254 -0.491152 -0.358743 -0.405977 0.187646 -0.076627 0.596064 -0.460989 -0.130139 0.198024 -0.502493 0.079525 0.229542 -0.196838 0.102576 0.001463 -0.575812 -0.095469 0.533972 0.264163 0.131328 -0.098860 -0.119427 0.683080 -0.451500 0.211268 0.168501 0.123887 -0.224516 0.191279 0.108149 0.020384 0.136198 -0.134653 -0.449657 -0.057338 -0.229873 0.443398 -0.560438 0.358444 0.387997 0.481464 0.195864 -0.622330 0.590622 -0.439793 -0.421564 0.500332 -0.196994 0.316529 0.423397 -0.079069 -0.290338 0.380337 0.556714 1.142006 0.285511 0.024544 -0.885140 0.039247 -0.468984 -0.421882 -0.492524 0.118205 0.514491 0.118395 -0.155378 -0.678957 -0.648645 -0.161557 -0.842412 0.048117 0.481519 -0.356023 -0.270373 -0.433461 0.213816 0.192064 0.576944 0.328859 -0.038315 -0.395522 0.130596 0.515088 -0.287751 0.420812 -0.246616 0.015345 0.527770 -0.601376 -0.136157 0.405544 -0.229706 0.401132 -0.248824 0.232290 -0.432321 -0.278400 -0.346356 -0.387298 0.237640 0.357701 0.197419 -0.005838 -0.412831 -0.348787 0.259470 0.235739 0.360170 -0.261359 0.196747 0.480358 -0.658749 -0.046190 -0.492356 0.073584 -0.366749 -0.054021 -0.202910 0.226224 0.384270 -0.017253 0.347848 -0.300176 0.195436 0.468071 0.087103 0.151840 0.320904 0.365540 -0.319079 0.184966 0.088361 -0.414070 -0.020703 -0.175467 0.017373 -0.254966 -0.752074 -0.097547 -0.212519 -0.572125 -0.000087 0.287178 -0.631827 -0.399709 -0.045073 0.350101 0.135157 0.166770 0.143412 0.194591 
103113 -0.312686 0.094627 -0.120750 0.193632 0.038664 -0.641775 0.100764 0.811569 0.485362 -0.227655 -0.544701 -0.583785 0.111568 -0.235435 -0.235116 0.025766 -0.205087 0.439539 -0.126250 -0.061645 0.074173 -0.747732 -0.108406 0.342772 -0.389905 -0.451725 -0.407907 0.082732 -0.327912 0.685374 -0.071389 0.629018 -0.080133 -0.057997 0.118623 -0.254268 -0.659064 0.578341 -0.355655 0.267944 0.182497 -0.670965 0.176631 0.216772 0.102228 -0.302994 0.016971 0.188789 0.110802 0.354712 -0.060587 0.254122 -0.016191 0.217393 -0.475545 0.167648 -0.653048 -0.662644 0.170218 0.468018 -0.199463 -0.584060 -0.355512 -0.064149 0.052672 -0.057685 0.247012 -0.500937 -0.464113 0.436464 -0.510399 0.232975 0.223356 0.353954 -0.478181 -0.528968 -0.387686 0.646212 -0.264335 0.250761 0.091354 0.086860 0.163812 -0.513949 -0.001390 0.200485 -0.588362 -0.397432 0.346666 -0.066495 0.013870 0.608334 -0.111763 -0.042689 0.291700 -0.029617 -0.590002 0.066683 0.057772 -0.219322 0.014282 -0.098633 0.303509 0.319068 0.275290 -0.108210 0.133307 0.232942 -0.118946 -0.229550 0.202329 -0.243699 -0.048894 -0.307965 0.263836 0.649270 0.361180 0.324915 -0.156987 0.230343 -0.000086 -0.104496 -0.006210 0.537436 -0.448218 -0.247888 0.331154 0.793890 -0.228866 -0.466172 -0.225771 -0.277349 0.085346 0.161595 -0.256249 0.048412 0.274724 -0.249297 0.697261 -0.187151 -0.185753 -0.031416 0.013301 0.228737 -0.271174 -0.536539 -0.303872 0.322139 0.260158 0.802569 -0.015963 0.340623 0.332732 0.621677 -0.337123 -0.055810 0.258601 0.242905 0.027284 0.092866 -0.031685 0.509760 -0.543061 -0.151978 -0.193059 0.021608 0.316762 0.213879 -0.113443 0.021047 -0.192761 0.315873 -0.206255 0.537710 -0.045539 0.632737 -0.186626 -0.331301 0.151083 0.475323 0.063285 -0.529797 -0.153763 0.418522 -0.177433 0.234801 0.014460 0.019749 0.060422 -0.278633 -0.042503 0.007355 -0.158906 -0.697007 -0.196223 0.126312 -0.087487 0.328654 0.752456 0.444656 
132707 -0.643669 0.147056 -0.933240 0.181088 -0.186259 0.749748 0.364179 0.798655 -0.046942 -0.425043 -0.058564 0.146022 -0.733742 -0.465941 0.642452 -0.687840 -0.769806 -0.049353 -0.176347 0.033324 0.406434 -0.705927 -0.016677 -0.254076 -0.027681 -0.082822 -0.486700 0.186891 -0.457987 -0.307512 -0.596600 0.554237 0.038809 -0.101611 -0.655057 0.728061 0.224541 -0.041625 -0.615620 -0.045699 -0.585703 -0.463492 -0.581162 0.285527 0.403248 -0.156781 0.578398 0.850149 0.189698 -0.099043 0.762836 0.221495 -0.207436 0.514277 0.790954 0.180740 -0.436427 -1.307927 0.512237 -0.251655 -0.465733 0.183275 -0.043441 -0.166193 -0.427759 0.392626 1.149496 -0.443024 -1.210881 0.229685 0.023079 0.388320 0.931114 -0.023558 0.606936 -1.228995 0.379610 -0.047081 0.579196 0.421135 -1.194228 0.214904 -0.270901 -0.435269 -0.717359 1.016362 -0.058689 0.311087 0.332571 1.119483 -0.276143 0.084084 0.563094 -0.307148 0.670205 -0.599854 -0.667639 0.031677 -0.822879 -1.359156 0.032649 -0.014625 0.958665 0.153881 0.667860 -0.640384 -0.269842 -0.200130 -1.181133 0.315286 1.148116 0.722270 -0.010474 0.130949 -0.720092 0.337036 -0.326041 -0.220125 1.068418 -0.838642 -0.469500 0.562577 -0.154084 0.076775 -0.305611 -0.114795 -0.212687 0.976309 -0.134516 -0.953219 -0.320882 1.111915 0.088344 0.158192 -0.458124 -0.509077 -0.295983 0.172760 -0.186293 -0.178116 0.319966 -0.076530 0.280987 -0.191524 -0.588175 -0.322588 -0.608074 -0.212341 0.447675 0.644962 1.194559 -0.440413 -0.596210 -0.206820 -0.311659 -0.509568 1.100127 1.150757 0.554670 -0.005722 1.157457 -0.573998 -0.088278 0.749622 -0.499860 -0.631388 0.518236 0.076113 -0.599324 -0.331489 -0.351744 -0.410191 0.672968 0.050581 0.454061 -0.652885 -1.367673 0.730757 -0.155161 -1.367097 -0.382943 -0.968946 0.385194 0.047262 0.128614 1.309834 -0.247354 -0.078582 0.762688 0.241599 0.930215 -0.686569 0.254501 -0.465093 0.082209 -0.798173 -0.059896 0.180664 -0.730714 0.110144 
85480 0.100427 0.054853 0.006122 -0.166284 -0.714627 -0.050747 0.132847 0.053229 0.267476 -0.097522 -0.321703 0.167680 0.167938 -0.059722 0.073629 -0.552609 0.083719 -0.075691 0.553763 -0.081068 -0.345629 -0.524171 0.314548 0.174414 -0.265324 0.120599 0.015933 0.128404 -0.144225 0.253592 0.065793 -0.038556 0.246910 -0.275561 0.153186 0.519438 -0.719929 0.867245 -0.277020 0.627315 -0.450436 -0.219765 -0.040150 -0.246961 0.340628 -0.289197 0.379836 0.072657 -0.221029 -0.483029 -0.055876 0.225575 0.058311 0.116802 -0.243447 -0.008688 -0.267979 -0.051491 0.939320 0.574386 0.027058 0.268789 -0.083367 0.296976 -0.210386 -0.456642 -0.213541 -0.768956 0.059934 0.204994 -0.145574 -0.060634 0.568061 0.101094 -0.560683 -0.379873 0.425463 -0.163429 0.303738 -0.450884 -0.227314 -0.225135 -0.447566 -0.095354 0.256707 -0.080357 -0.859821 -0.197380 0.187185 0.314708 -0.329876 -0.039359 -0.189271 0.409514 -0.441531 -0.361384 -0.420058 -0.099436 -0.207863 -0.310494 -0.117062 -0.333278 -0.031926 0.089401 0.060020 -0.086427 0.023127 0.534817 -0.128037 0.029403 0.067932 -0.038342 0.193967 0.285583 -0.046951 -0.024118 -0.374568 -0.404859 0.296833 0.076651 -0.061809 -0.562314 -0.473418 0.011184 -0.037614 0.143207 -0.572613 0.127544 0.295562 0.267917 0.153609 -0.650108 0.260852 -0.213817 -0.190755 -0.211885 -0.085452 0.040932 0.014040 0.471812 -0.159759 0.190837 0.241024 0.342612 -0.404126 -0.469183 0.036940 -0.142321 0.120966 -0.124474 0.265521 0.238713 0.266059 -0.711949 0.219380 0.287366 0.282729 -0.013042 -0.133516 0.255397 -0.409047 0.727833 0.499809 -0.247379 -0.116472 0.363180 -0.028216 -0.484853 0.283806 0.566139 0.323962 -0.128158 0.130323 -0.104331 0.082235 0.313646 -0.026902 -0.031911 -0.537815 0.549884 -0.025841 0.217432 0.429907 -0.020801 -0.043435 0.676903 -0.358329 0.175312 0.354086 0.424086 -0.176216 0.376809 -0.258028 -0.016385 0.595600 -0.220350 0.014735 -0.110586 0.131116 0.499675 
191195 -0.101091 0.020161 0.224692 0.256094 -0.018221 -0.346005 0.241679 0.202838 -0.159060 -0.198966 0.458399 -0.507543 0.284656 -0.051037 -0.084703 -0.206791 0.315435 -0.453147 0.445903 0.307869 -0.295194 -0.255272 -0.122068 0.375815 -0.274886 0.497843 0.512012 0.116108 0.065218 0.144775 -0.049851 -0.451782 -0.058742 -0.444731 -0.059589 0.936815 -0.171772 -0.208457 -0.570600 0.130996 0.035592 0.368948 0.529554 -0.148290 -0.050804 0.028351 -0.051808 -0.333555 0.285907 0.733937 0.044653 0.488990 -0.094328 -0.092710 0.029539 -0.093288 0.101279 0.293699 -0.136377 -0.176671 -0.706026 -0.175171 -0.266122 -0.141387 0.114056 0.518051 0.452887 0.009190 0.248027 0.028049 -0.157393 0.325403 0.676101 0.269053 -0.465647 0.881696 0.525769 -0.482583 0.145724 -0.382428 0.012126 -0.081994 0.224343 -0.343695 -0.270939 0.162062 0.157338 -0.173117 -0.079191 -0.330808 -0.850682 -0.005048 -0.223061 0.018653 -0.317949 0.127008 0.481371 0.005099 -0.093825 -0.129923 0.092738 -0.084669 -0.131563 0.330793 -0.429288 -0.266103 -0.124673 -0.023835 0.035498 -0.608443 0.549145 0.197253 -0.164834 0.795086 -0.114098 -0.606226 0.330911 0.130287 0.188881 -0.840251 -0.147156 0.255537 0.372261 0.063018 0.076451 0.376285 0.383283 0.248533 0.128596 -0.382727 -0.212460 0.212464 0.272190 -0.398182 -0.255944 0.244330 -0.659913 0.393618 0.009928 0.052523 -0.745271 0.494897 0.356855 0.360616 0.150113 0.189532 -0.210909 0.061224 0.133894 -0.570111 0.055067 -0.252262 -0.104965 0.255330 0.179590 -0.342373 -0.116597 -0.295126 -0.145361 0.048561 -0.239496 0.113913 -0.427073 0.045833 -0.877391 0.046709 0.539464 -0.573880 -0.033631 -0.401283 0.731591 0.462603 0.099050 0.339573 0.061786 0.421416 0.284135 0.097615 -0.509395 0.286049 -0.422266 -0.362816 0.351019 -0.195381 0.559308 -0.387521 -0.259322 0.386011 0.078707 -0.024883 -0.178600 -0.291736 0.019491 -0.482058 0.585871 -0.121134 0.117576 0.163656 0.840810 -0.651545 
155753 0.115242 -0.111829 -0.036180 0.022844 0.309442 0.025237 0.133520 -0.079796 0.107010 -0.055437 0.025014 0.200731 -0.252543 -0.235197 -0.093830 0.284810 0.262643 -0.616603 0.296979 -0.227543 -0.116437 0.408946 -0.226018 0.037963 -0.360866 0.180347 0.346258 0.116795 0.069982 0.130350 -0.335613 -0.260963 -0.325846 0.033509 -0.025180 0.536229 -0.089295 0.162546 0.092409 -0.184612 -0.090168 -0.057694 0.146532 -0.402460 -0.202620 -0.187695 0.147806 0.110123 0.010790 -0.089477 0.037713 0.224303 0.294375 0.096812 0.052541 -0.084942 0.103974 -0.282521 0.299382 -0.129049 -0.144528 -0.167707 -0.689097 -0.241069 0.077209 -0.785783 0.154108 -0.064280 0.516692 0.359799 -0.281859 0.211671 0.102369 -0.748925 -0.658759 -0.021259 -0.243067 -0.142370 0.091830 -0.587698 0.338290 -0.264412 0.000746 0.424898 0.055775 -0.181807 0.216083 -0.315274 0.027942 -0.235352 0.059280 0.085174 0.177423 0.183738 0.111571 0.265025 0.215760 -0.105836 0.283005 -0.405280 -0.253390 0.013645 -0.197507 -0.373949 0.348521 -0.391801 -0.176207 0.500852 -0.310744 -0.345824 0.384442 -0.154137 -0.369545 0.019718 -0.332358 0.246601 -0.013076 0.144757 0.045969 -0.430787 0.309592 0.077065 -0.183199 0.134361 -0.411562 -0.137921 0.419699 -0.298506 -0.209682 0.011866 0.503940 0.031168 0.378656 0.009339 -0.066494 -0.320725 -0.219705 -0.263995 -0.248153 -0.115892 -0.049675 0.250708 0.257252 0.021611 0.194977 -0.576581 -0.016446 0.208469 -0.122568 0.207100 -0.336944 0.157631 -0.149132 0.227594 0.082498 0.030997 0.292033 0.111430 0.120747 -0.016583 -0.093973 0.109386 0.109777 0.051571 0.234408 -0.196857 0.328832 0.010667 -0.019461 0.228735 0.263929 0.349851 0.063022 0.043402 -0.342853 0.286990 0.064469 -0.146651 -0.092523 -0.002157 -0.362002 0.147262 0.065173 -0.116466 0.080933 -0.020856 -0.580758 -0.069417 0.483395 0.060173 0.570825 -0.104219 0.015927 -0.102342 0.710233 -0.353359 0.220995 -0.001420 0.223176 0.001181 
173792 0.263231 -0.149508 0.251752 0.359098 -0.194896 0.706819 -0.089935 0.459253 0.109350 -0.145322 -0.096168 -0.292457 0.168349 -0.098482 0.140809 -0.302777 0.008883 -0.520319 0.341720 -0.253313 -0.448499 0.462694 -0.622163 0.166498 0.149789 0.265479 -0.056835 -0.136226 -0.605023 0.309810 -0.054126 -0.481941 0.421504 0.027591 -0.188659 -0.165554 0.364798 -0.369971 0.354806 0.512113 0.363606 -0.239127 0.572608 -0.142653 0.519025 -0.473555 0.047155 -0.228002 0.253477 0.889269 0.462729 0.207076 0.317590 -0.031792 0.276349 0.185562 0.066753 0.407149 0.419675 -0.527771 -0.396690 0.166614 -0.064977 -0.245995 -0.222592 -0.230951 0.525227 -0.429785 -0.166382 -0.163849 -0.305578 -0.170559 0.121754 -0.736143 -0.252946 0.000566 0.238130 -0.551939 -0.012734 0.382465 -0.085192 -0.109474 0.362278 0.478364 -0.569593 0.211981 -0.096290 -0.187058 0.082088 0.148093 -0.395714 -0.193329 -0.447858 0.040628 -0.646875 0.370071 -0.143434 0.132361 0.417646 -0.358240 0.725924 -0.122622 0.164165 0.312378 -0.016677 -0.144292 -0.001041 0.221009 -0.119613 -0.569525 -0.090330 -0.002386 -0.557835 0.243938 0.056549 0.354768 -0.260153 -0.139972 -0.192265 -0.568055 -0.305666 0.408193 -0.441494 0.381307 -0.146612 0.189512 0.540861 0.224338 -0.203265 -0.115363 -0.580418 0.236747 0.205723 0.069525 -0.431644 0.388616 0.425402 0.108224 0.175332 -0.245921 -0.359994 0.069866 -0.252104 0.707834 -0.138619 0.437408 -0.395561 0.277402 0.206218 -0.016841 0.060080 0.106077 0.015296 0.544383 -0.038300 0.111218 -0.152888 -0.111199 0.617012 -0.315426 -0.346371 0.331542 -0.162999 0.503153 0.506673 -0.122981 0.320122 0.130131 0.112103 -0.206493 0.293326 -0.004979 0.073606 0.116559 0.336734 0.027077 0.433555 0.728686 -0.725003 0.446447 -0.296292 0.138709 -0.084736 0.121078 0.184060 -0.078466 -0.658347 0.036131 0.286891 -0.311901 -0.101092 -0.340746 -0.405113 -0.683555 0.258723 -0.015314 -0.196345 0.668619 -0.410267 -0.473328 
150328 0.065051 0.071033 0.070852 -0.509689 -0.327887 0.179316 0.020061 -0.096721 -0.113647 0.316728 -0.076084 0.057106 -0.106610 -0.237706 -0.296889 -0.193637 -0.129944 0.331742 0.174225 0.009809 0.326907 -0.161151 -0.036156 0.225431 -0.609550 -0.454201 -0.274110 -0.040215 -0.469107 -0.118866 -0.311889 0.064361 0.193751 -0.153953 -0.034924 0.146608 -0.045838 0.876015 0.701625 0.197872 -0.156489 -0.157130 0.323999 -0.443804 -0.179919 -0.546819 -0.166603 0.375215 0.035980 0.150094 0.063741 0.199297 -0.014162 -1.017845 -0.426901 -0.177637 -0.530858 0.141404 0.038332 0.064410 -0.341091 0.300038 -0.560741 -0.034268 -0.089433 -0.177920 0.161947 0.042717 -0.437675 -0.274692 0.006073 0.049260 -0.262191 -0.171443 -0.159675 0.422800 0.122211 -0.340658 -0.121077 0.098870 0.326029 -0.314033 0.342344 0.278563 -0.094506 -0.228991 0.416459 -0.136146 -0.506516 0.274220 -0.174544 -0.240733 0.293354 -0.005490 0.032521 -0.155972 0.128194 -0.050553 -0.071564 -0.071782 0.077130 -0.307282 -0.438553 -0.119251 -0.081263 -0.204084 0.477438 -0.207856 -0.622187 -0.470863 0.302822 0.235783 -0.241954 0.159442 -0.158435 -0.575971 -0.272025 0.139362 -0.289454 0.125073 0.311710 0.194028 0.041536 -0.119004 -0.231713 -0.105753 -0.132948 0.044545 -0.184182 0.355207 -0.423449 -0.161082 0.410344 -0.054755 -0.484045 0.282470 0.451551 -0.234570 -0.010836 0.219385 -0.059406 -0.461103 0.543951 -0.151773 -0.067738 -0.121327 0.058750 0.164489 0.007133 -0.205072 -0.337839 0.348465 0.575633 0.287211 -0.001855 0.088383 0.655033 -0.491538 0.321851 0.130852 -0.124226 -0.074363 0.108454 0.027924 0.149825 -0.136281 0.009064 0.268491 0.019073 -0.079834 0.439934 -0.109534 0.067615 0.362235 -0.133103 0.316984 -0.020635 0.738534 -0.340045 0.167339 -0.033430 -0.086222 -0.147804 -0.221923 0.189376 -0.245849 -0.265381 -0.225789 0.106173 -0.093378 0.470850 0.185246 0.302601 -0.567177 -0.149622 -0.173706 -0.269414 0.068117 0.135351 -0.359966 
137561 -0.151774 -0.035903 0.333026 -0.025747 0.344913 -0.325486 0.351816 -0.197182 0.405059 -0.691558 0.127120 0.099788 -0.095054 -0.020713 -0.233345 0.088917 -0.044662 -0.028676 0.020886 -0.203937 -0.121443 -0.267022 -0.094589 0.385229 -0.220369 0.043391 -0.096116 -0.084187 0.048119 0.112961 -0.016732 -0.332950 0.089810 -0.506197 -0.049973 0.396202 -0.021061 -0.122404 0.324885 -0.411500 0.142359 -0.113489 0.211512 -0.510740 -0.033218 -0.549307 -0.132563 -0.051775 0.209046 0.181889 -0.426776 -0.195138 0.370268 -0.096131 -0.324270 -0.512591 -1.193925 -0.447274 0.348650 0.039971 0.064308 -0.137046 -0.246013 -0.270114 -0.472087 -0.054960 -0.475550 -0.215888 0.118580 -0.412257 0.166543 0.113109 -0.260858 0.016359 -0.329440 0.105608 0.244504 -0.396491 0.202020 -0.015584 -0.011849 0.065264 -0.021980 -0.123435 -0.441610 0.175770 0.037971 -0.213223 -0.305140 0.426632 0.061052 -0.032551 0.309046 0.087332 0.156978 -0.094030 0.044170 0.444892 -0.134811 -0.320909 0.523528 0.276121 -0.169984 0.692603 -0.379540 -0.145413 0.127765 0.384375 -0.684170 -0.125035 0.295791 0.316476 -0.296663 0.205622 -0.554491 0.595266 -0.091816 0.393018 0.180355 0.087256 0.656706 0.637209 0.072841 0.234756 0.290140 0.309558 -0.299958 0.547367 0.485824 -0.124833 0.451331 -0.086315 0.333313 -0.253040 -0.318968 0.304648 0.197576 -0.045888 -0.265162 0.021926 -0.116132 -0.281354 0.491535 -0.116712 0.304667 0.024170 0.134082 0.556537 -0.263955 -0.385677 0.035080 -0.336024 -0.028135 0.295596 -0.023618 0.260849 0.228363 -0.350403 -0.195020 0.311256 -0.304881 0.427461 0.388057 -0.372103 0.003769 -0.302004 -0.470649 0.130544 0.356777 -0.720650 0.168435 -0.042261 -0.282533 -0.153373 -0.224105 0.792063 -0.137824 -0.260279 0.303599 -0.105389 -0.754435 -0.486089 0.216599 -0.350721 -0.050099 0.342176 0.185060 -0.126184 0.683659 0.172855 -0.281534 -0.092380 -0.053933 -0.498888 0.207557 0.063913 -0.521377 0.393306 -0.363473 -0.573377 
151112 0.276895 -0.190921 0.263972 0.301026 -0.457859 0.157865 -0.269168 -0.071356 -0.090826 -0.254473 -0.181968 0.008644 0.084566 -0.047036 0.094606 0.214722 0.223291 0.013889 0.316272 0.368808 0.040810 -0.133236 -0.478754 -0.027047 -0.045484 -0.177132 0.132808 -0.386515 0.186136 0.088103 0.068900 0.078470 0.257893 0.046122 -0.385878 -0.082114 -0.000893 0.069379 -0.291923 0.266785 0.135566 -0.088305 0.376805 0.128042 -0.119653 -0.215435 -0.199291 0.226913 -0.344587 0.048744 -0.049969 -0.137595 0.304516 0.018496 0.174207 -0.128459 -0.194553 -0.048331 -0.233828 -0.069286 -0.379020 0.006772 -0.113854 -0.173548 0.259125 0.228604 0.298613 0.238666 0.315501 -0.124169 -0.234762 0.050406 -0.151824 -0.282678 0.003766 -0.149542 0.554786 0.061968 0.278727 -0.269867 0.114085 -0.011190 0.361470 0.248097 0.070187 -0.000503 0.069701 -0.191271 -0.007577 0.068280 0.314189 -0.044640 0.041969 0.216254 0.028079 -0.142381 -0.089359 0.323419 -0.548169 0.030593 0.080293 -0.152745 0.027467 0.214782 0.071608 0.162778 -0.015161 0.153960 0.029345 0.339935 -0.735666 -0.322507 0.161523 0.526251 0.031395 -0.272188 -0.199553 0.062185 0.055570 -0.047399 0.083535 0.202987 0.062540 -0.302702 -0.217046 -0.331178 0.301674 -0.379716 -0.184620 0.074731 0.019242 0.006974 0.095147 -0.150409 -0.164838 0.275258 -0.468050 -0.081509 -0.032623 -0.183370 -0.188455 0.313633 -0.243822 -0.313209 -0.040354 0.082739 -0.051015 0.154876 -0.171075 -0.211813 0.037149 -0.026241 0.179987 0.083018 0.146391 -0.006557 -0.086935 0.053878 -0.330257 0.277992 -0.572150 -0.356047 0.013483 0.331341 -0.094232 0.051276 -0.240319 0.039165 0.150285 0.317438 -0.268291 0.112925 -0.247346 0.326468 0.431145 0.125172 -0.166154 -0.090357 -0.217887 -0.264828 0.017557 0.035793 0.305458 0.049411 0.181507 0.156405 -0.125434 -0.105875 -0.114512 0.222099 0.380187 -0.250286 0.416718 -0.247564 0.100400 -0.107006 -0.473459 0.135136 -0.039349 -0.369893 
